~o
<STREAMINFO> 1 39
<VECSIZE> 39<NULLD><MFCC_D_A_0><DIAGC>
~v "varFloor1"
<VARIANCE> 39
 1.800114e-01 1.519127e-01 2.852846e-01 2.534797e-01 2.821024e-01 3.016612e-01 2.945425e-01 2.471487e-01 2.122073e-01 3.196048e-01 2.418761e-01 1.749120e-01 1.015027e+00 6.487466e-03 6.143028e-03 8.516928e-03 1.009298e-02 1.354946e-02 1.454864e-02 1.663765e-02 1.798384e-02 1.697595e-02 1.681930e-02 1.677035e-02 1.442426e-02 5.849039e-03 9.357015e-04 9.690709e-04 1.357299e-03 1.794185e-03 2.409799e-03 2.700560e-03 3.104459e-03 3.466015e-03 3.343903e-03 3.279697e-03 3.262125e-03 2.850542e-03 6.436716e-04
~h "ZERO"
<BEGINHMM>
<NUMSTATES> 12
<STATE> 2
<MEAN> 39
 -7.566935e+00 -4.450393e+00 1.373103e+00 7.940153e-01 -5.059040e+00 -9.276432e+00 -5.213058e+00 -3.485915e+00 -8.299669e+00 -7.498462e+00 -1.090306e+00 -3.414707e+00 6.271151e+01 4.648791e-02 -4.764265e-02 -4.716085e-02 -1.517384e-02 -2.032285e-02 4.329988e-02 1.735837e-02 1.035157e-02 1.098069e-02 4.842841e-02 -3.058563e-03 -1.248160e-02 -6.355368e-02 -7.180699e-04 -2.844713e-03 -5.036063e-03 1.431647e-03 3.479014e-03 2.973653e-03 4.422656e-03 1.620120e-04 5.527507e-04 2.470929e-03 -3.797766e-03 -2.598107e-03 -7.733411e-03
<VARIANCE> 39
 2.766365e+01 3.761743e+01 8.708276e+01 2.798976e+01 7.698631e+01 4.815212e+01 8.286592e+01 2.803569e+01 2.675155e+01 3.410904e+01 5.127762e+01 2.753796e+01 9.757373e+01 7.595090e-01 1.075726e+00 1.620395e+00 1.644538e+00 2.320462e+00 2.303714e+00 2.393431e+00 2.388084e+00 2.018935e+00 1.725303e+00 2.333710e+00 1.767594e+00 5.177641e-01 8.404441e-02 1.255726e-01 1.547951e-01 2.633665e-01 3.001516e-01 3.675151e-01 3.513494e-01 4.013188e-01 3.755590e-01 3.266853e-01 4.167665e-01 3.266492e-01 4.063683e-02
<GCONST> 1.080363e+02
<STATE> 3
<MEAN> 39
 -7.159686e+00 -5.171475e+00 3.951592e-01 8.033769e-01 -4.986907e+00 -8.508538e+00 -4.641361e+00 -3.322249e+00 -8.146534e+00 -6.750354e+00 -1.454593e+00 -3.779807e+00 6.121272e+01 2.885573e-02 -6.639405e-02 -9.408547e-02 7.444977e-03 1.969756e-02 7.090798e-02 6.027792e-02 1.147862e-02 1.325257e-02 6.824335e-02 -4.365768e-02 -3.791895e-02 -1.459015e-01 -1.841996e-03 -9.915056e-04 -3.437485e-03 2.073270e-03 3.152468e-03 2.081219e-03 3.091935e-03 7.645892e-05 2.016179e-05 1.362045e-03 -3.191415e-03 -1.884981e-03 -6.678713e-03
<VARIANCE> 39
 2.439820e+01 3.106728e+01 7.969860e+01 2.731332e+01 6.602220e+01 4.657963e+01 7.597319e+01 2.647466e+01 2.530402e+01 3.274919e+01 4.778324e+01 2.682011e+01 1.070853e+02 6.497399e-01 8.566458e-01 1.393418e+00 1.578323e+00 2.022481e+00 2.143321e+00 2.240204e+00 2.286866e+00 1.983200e+00 1.694310e+00 2.185283e+00 1.732244e+00 4.255193e-01 7.199983e-02 1.051639e-01 1.396738e-01 2.586559e-01 2.774034e-01 3.464065e-01 3.372796e-01 3.879990e-01 3.728821e-01 3.269648e-01 3.988238e-01 3.208179e-01 3.402992e-02
<GCONST> 1.050508e+02
<STATE> 4
<MEAN> 39
 -7.018034e+00 -5.941443e+00 -9.271185e-01 1.096335e+00 -4.538324e+00 -7.530481e+00 -3.750659e+00 -3.153679e+00 -8.012392e+00 -5.900045e+00 -2.185670e+00 -4.349499e+00 5.896151e+01 3.575752e-03 -6.404381e-02 -1.167315e-01 3.204201e-02 4.684806e-02 8.584873e-02 7.980263e-02 1.210528e-02 9.742713e-03 7.329328e-02 -7.068414e-02 -5.166902e-02 -2.056697e-01 -2.236596e-03 7.722839e-04 -1.231147e-03 2.020259e-03 1.694745e-03 9.358168e-04 8.684610e-04 1.091546e-04 -4.455557e-04 5.197752e-05 -1.776637e-03 -7.791101e-04 -4.426104e-03
<VARIANCE> 39
 2.013434e+01 2.374597e+01 6.693863e+01 2.564172e+01 5.314700e+01 4.229199e+01 6.476206e+01 2.392504e+01 2.299085e+01 2.957888e+01 4.259693e+01 2.513019e+01 1.123123e+02 5.287665e-01 6.656917e-01 1.140050e+00 1.449831e+00 1.710678e+00 1.928192e+00 2.056223e+00 2.126580e+00 1.916286e+00 1.655068e+00 1.997045e+00 1.657216e+00 3.324823e-01 6.001357e-02 8.830884e-02 1.260113e-01 2.459040e-01 2.550092e-01 3.218032e-01 3.253774e-01 3.702621e-01 3.667429e-01 3.264988e-01 3.747198e-01 3.100176e-01 2.855033e-02
<GCONST> 1.007927e+02
<STATE> 5
<MEAN> 39
 -7.161706e+00 -6.563649e+00 -2.315187e+00 1.637596e+00 -3.920413e+00 -6.482783e+00 -2.831250e+00 -2.980314e+00 -7.946497e+00 -5.099424e+00 -3.093212e+00 -4.981107e+00 5.627077e+01 -2.042243e-02 -4.628022e-02 -1.157410e-01 5.156310e-02 5.377901e-02 8.872269e-02 7.401781e-02 1.352578e-02 2.758838e-03 6.564253e-02 -7.969221e-02 -5.281913e-02 -2.363525e-01 -1.864761e-03 1.857472e-03 6.326111e-04 1.436146e-03 -8.760628e-05 -3.437509e-05 -1.153502e-03 2.239651e-04 -6.457911e-04 -9.302017e-04 -1.978770e-04 2.543025e-04 -1.851766e-03
<VARIANCE> 39
 1.591202e+01 1.683929e+01 5.102803e+01 2.331056e+01 4.040879e+01 3.607112e+01 5.102251e+01 2.116242e+01 2.045926e+01 2.533343e+01 3.606377e+01 2.247815e+01 1.093216e+02 4.147848e-01 5.211065e-01 9.139863e-01 1.292029e+00 1.446003e+00 1.704587e+00 1.878800e+00 1.952497e+00 1.834353e+00 1.618691e+00 1.808975e+00 1.562572e+00 2.564743e-01 4.974248e-02 7.617479e-02 1.158904e-01 2.288764e-01 2.376539e-01 2.987916e-01 3.171226e-01 3.530046e-01 3.585401e-01 3.263656e-01 3.491775e-01 2.970679e-01 2.457151e-02
<GCONST> 9.570643e+01
<STATE> 6
<MEAN> 39
 -7.525202e+00 -6.931097e+00 -3.560518e+00 2.338650e+00 -3.354489e+00 -5.472795e+00 -2.116073e+00 -2.790346e+00 -7.964882e+00 -4.445277e+00 -3.985679e+00 -5.553276e+00 5.345524e+01 -3.650454e-02 -2.215519e-02 -9.941329e-02 6.259709e-02 4.271340e-02 8.335865e-02 5.125399e-02 1.628842e-02 -4.438749e-03 5.117610e-02 -7.284349e-02 -4.461847e-02 -2.399583e-01 -1.046099e-03 2.112516e-03 1.649111e-03 6.794422e-04 -1.395273e-03 -6.132347e-04 -2.224977e-03 3.333734e-04 -5.634108e-04 -1.335931e-03 1.005307e-03 8.993241e-04 3.623331e-04
<VARIANCE> 39
 1.217279e+01 1.145748e+01 3.542559e+01 2.056624e+01 2.936741e+01 2.929452e+01 3.764889e+01 1.875321e+01 1.824891e+01 2.116456e+01 2.909217e+01 1.939079e+01 9.768302e+01 3.200306e-01 4.224854e-01 7.423012e-01 1.138392e+00 1.255276e+00 1.506431e+00 1.729404e+00 1.798402e+00 1.755368e+00 1.593415e+00 1.651072e+00 1.471576e+00 2.025121e-01 4.195959e-02 6.840163e-02 1.096798e-01 2.115381e-01 2.270198e-01 2.799057e-01 3.121246e-01 3.389946e-01 3.505061e-01 3.275736e-01 3.266823e-01 2.853668e-01 2.184336e-02
<GCONST> 9.033823e+01
<STATE> 7
<MEAN> 39
 -8.000706e+00 -7.031137e+00 -4.564837e+00 3.102123e+00 -2.988648e+00 -4.559575e+00 -1.709964e+00 -2.570434e+00 -8.051681e+00 -3.964658e+00 -4.725115e+00 -5.995233e+00 5.076668e+01 -4.261671e-02 3.042631e-04 -7.763927e-02 6.549886e-02 2.226084e-02 7.412113e-02 2.385028e-02 1.991897e-02 -9.376409e-03 3.603331e-02 -5.631790e-02 -3.219723e-02 -2.232961e-01 -2.082287e-04 1.749506e-03 1.855711e-03 4.229153e-05 -1.847894e-03 -8.370971e-04 -2.233309e-03 3.561433e-04 -3.175843e-04 -1.252012e-03 1.593412e-03 1.079118e-03 1.903656e-03
<VARIANCE> 39
 8.997692e+00 7.977067e+00 2.294494e+01 1.770402e+01 2.106871e+01 2.321035e+01 2.706914e+01 1.692455e+01 1.661068e+01 1.792690e+01 2.288231e+01 1.657071e+01 8.018439e+01 2.498205e-01 3.609141e-01 6.286426e-01 1.011586e+00 1.135798e+00 1.349805e+00 1.613200e+00 1.677686e+00 1.692469e+00 1.582621e+00 1.538053e+00 1.402200e+00 1.659851e-01 3.670383e-02 6.396931e-02 1.066819e-01 1.967171e-01 2.221887e-01 2.652088e-01 3.086283e-01 3.283195e-01 3.445849e-01 3.305131e-01 3.102882e-01 2.775841e-01 1.982575e-02
<GCONST> 8.523380e+01
<STATE> 8
<MEAN> 39
 -8.486523e+00 -6.916425e+00 -5.322447e+00 3.851919e+00 -2.863958e+00 -3.763332e+00 -1.592228e+00 -2.315533e+00 -8.173606e+00 -3.633504e+00 -5.248086e+00 -6.290690e+00 4.837091e+01 -4.071895e-02 1.646431e-02 -5.738755e-02 6.264602e-02 1.863164e-03 6.391631e-02 1.601789e-03 2.326886e-02 -1.113478e-02 2.393960e-02 -3.687124e-02 -2.014060e-02 -1.942746e-01 3.598516e-04 1.105312e-03 1.590872e-03 -3.688440e-04 -1.564879e-03 -8.672781e-04 -1.563738e-03 2.591882e-04 -4.291843e-05 -9.264752e-04 1.628970e-03 9.168044e-04 2.751034e-03
<VARIANCE> 39
 6.431806e+00 6.045267e+00 1.457539e+01 1.503053e+01 1.569445e+01 1.844837e+01 2.006222e+01 1.562694e+01 1.552085e+01 1.585501e+01 1.827097e+01 1.447103e+01 6.078040e+01 2.031959e-01 3.257681e-01 5.630723e-01 9.192486e-01 1.069939e+00 1.236211e+00 1.524813e+00 1.587126e+00 1.649515e+00 1.584419e+00 1.470298e+00 1.361588e+00 1.395441e-01 3.353914e-02 6.178129e-02 1.058734e-01 1.855123e-01 2.208721e-01 2.536635e-01 3.045357e-01 3.194462e-01 3.413635e-01 3.346785e-01 3.008321e-01 2.746570e-01 1.803331e-02
<GCONST> 8.080914e+01
<STATE> 9
<MEAN> 39
 -8.916912e+00 -6.666505e+00 -5.876128e+00 4.541528e+00 -2.936604e+00 -3.085009e+00 -1.669466e+00 -2.033920e+00 -8.296611e+00 -3.408922e+00 -5.556409e+00 -6.463020e+00 4.635297e+01 -3.456449e-02 2.517577e-02 -4.154729e-02 5.657389e-02 -1.256376e-02 5.383363e-02 -1.127680e-02 2.503191e-02 -1.023400e-02 1.566909e-02 -1.951441e-02 -1.116169e-02 -1.598410e-01 5.895045e-04 4.631576e-04 1.183080e-03 -5.806648e-04 -9.414306e-04 -8.512127e-04 -7.356681e-04 5.256099e-05 1.417558e-04 -6.109290e-04 1.324975e-03 6.053032e-04 3.022293e-03
<VARIANCE> 39
 4.537609e+00 5.036355e+00 9.750834e+00 1.274144e+01 1.263947e+01 1.503339e+01 1.601192e+01 1.468517e+01 1.481579e+01 1.472775e+01 1.540883e+01 1.315755e+01 4.280597e+01 1.753110e-01 3.076922e-01 5.306457e-01 8.572740e-01 1.037505e+00 1.160147e+00 1.456347e+00 1.517340e+00 1.621561e+00 1.593394e+00 1.438388e+00 1.345581e+00 1.179054e-01 3.183063e-02 6.092978e-02 1.062797e-01 1.775706e-01 2.206450e-01 2.446456e-01 2.988434e-01 3.108907e-01 3.397965e-01 3.388985e-01 2.970320e-01 2.755957e-01 1.625054e-02
<GCONST> 7.723775e+01
<STATE> 10
<MEAN> 39
 -9.266924e+00 -6.358201e+00 -6.279378e+00 5.147830e+00 -3.126929e+00 -2.521381e+00 -1.836680e+00 -1.747280e+00 -8.398922e+00 -3.256029e+00 -5.692199e+00 -6.553609e+00 4.473328e+01 -2.747927e-02 2.748420e-02 -3.023848e-02 4.899633e-02 -1.971125e-02 4.403514e-02 -1.559879e-02 2.420084e-02 -8.050352e-03 1.007363e-02 -6.671416e-03 -5.881389e-03 -1.253852e-01 5.808348e-04 -2.711313e-05 8.178110e-04 -6.744323e-04 -3.557755e-04 -8.215185e-04 -1.086213e-04 -2.057576e-04 1.942593e-04 -4.175927e-04 9.011565e-04 3.160918e-04 2.866138e-03
<VARIANCE> 39
 3.300237e+00 4.450819e+00 7.290891e+00 1.088243e+01 1.103077e+01 1.269496e+01 1.385557e+01 1.393384e+01 1.432564e+01 1.418644e+01 1.392414e+01 1.244335e+01 2.822616e+01 1.601915e-01 2.995229e-01 5.170027e-01 8.160272e-01 1.021435e+00 1.114424e+00 1.403875e+00 1.461424e+00 1.599545e+00 1.603604e+00 1.428933e+00 1.343335e+00 9.902044e-02 3.096990e-02 6.078053e-02 1.070217e-01 1.717761e-01 2.196415e-01 2.383384e-01 2.924241e-01 3.022752e-01 3.379304e-01 3.418752e-01 2.964245e-01 2.782269e-01 1.454181e-02
<GCONST> 7.445065e+01
<STATE> 11
<MEAN> 39
 -9.540118e+00 -6.050361e+00 -6.577823e+00 5.661491e+00 -3.362640e+00 -2.068401e+00 -2.016970e+00 -1.486173e+00 -8.476062e+00 -3.157749e+00 -5.711992e+00 -6.602161e+00 4.348525e+01 -2.132569e-02 2.540067e-02 -2.258792e-02 4.086152e-02 -2.130378e-02 3.476585e-02 -1.464420e-02 2.047979e-02 -6.040094e-03 5.749792e-03 1.260065e-03 -3.487967e-03 -9.461245e-02 4.722177e-04 -3.136281e-04 5.339240e-04 -7.068957e-04 3.137934e-05 -7.486677e-04 2.028164e-04 -4.332171e-04 1.433578e-04 -3.215472e-04 4.956915e-04 1.282329e-04 2.440788e-03
<VARIANCE> 39
 2.591523e+00 4.033544e+00 6.146368e+00 9.409792e+00 1.017104e+01 1.113599e+01 1.275238e+01 1.328962e+01 1.394361e+01 1.394017e+01 1.328350e+01 1.208532e+01 1.766991e+01 1.526704e-01 2.966022e-01 5.111315e-01 7.858620e-01 1.008811e+00 1.091036e+00 1.368841e+00 1.417650e+00 1.575991e+00 1.610703e+00 1.429486e+00 1.344096e+00 8.324513e-02 3.052035e-02 6.098296e-02 1.073379e-01 1.669045e-01 2.166453e-01 2.348600e-01 2.874927e-01 2.943113e-01 3.341072e-01 3.426111e-01 2.965759e-01 2.804659e-01 1.311877e-02
<GCONST> 7.227039e+01
<TRANSP> 12
 0.000000e+00 1.000000e+00 0.000000e+00 0.000000e+00 0.000000e+00 0.000000e+00 0.000000e+00 0.000000e+00 0.000000e+00 0.000000e+00 0.000000e+00 0.000000e+00
 0.000000e+00 9.179726e-01 8.202735e-02 0.000000e+00 0.000000e+00 0.000000e+00 0.000000e+00 0.000000e+00 0.000000e+00 0.000000e+00 0.000000e+00 0.000000e+00
 0.000000e+00 0.000000e+00 9.179726e-01 8.202741e-02 0.000000e+00 0.000000e+00 0.000000e+00 0.000000e+00 0.000000e+00 0.000000e+00 0.000000e+00 0.000000e+00
 0.000000e+00 0.000000e+00 0.000000e+00 9.179729e-01 8.202712e-02 0.000000e+00 0.000000e+00 0.000000e+00 0.000000e+00 0.000000e+00 0.000000e+00 0.000000e+00
 0.000000e+00 0.000000e+00 0.000000e+00 0.000000e+00 9.179726e-01 8.202733e-02 0.000000e+00 0.000000e+00 0.000000e+00 0.000000e+00 0.000000e+00 0.000000e+00
 0.000000e+00 0.000000e+00 0.000000e+00 0.000000e+00 0.000000e+00 9.179726e-01 8.202744e-02 0.000000e+00 0.000000e+00 0.000000e+00 0.000000e+00 0.000000e+00
 0.000000e+00 0.000000e+00 0.000000e+00 0.000000e+00 0.000000e+00 0.000000e+00 9.179726e-01 8.202733e-02 0.000000e+00 0.000000e+00 0.000000e+00 0.000000e+00
 0.000000e+00 0.000000e+00 0.000000e+00 0.000000e+00 0.000000e+00 0.000000e+00 0.000000e+00 9.179727e-01 8.202730e-02 0.000000e+00 0.000000e+00 0.000000e+00
 0.000000e+00 0.000000e+00 0.000000e+00 0.000000e+00 0.000000e+00 0.000000e+00 0.000000e+00 0.000000e+00 9.179727e-01 8.202730e-02 0.000000e+00 0.000000e+00
 0.000000e+00 0.000000e+00 0.000000e+00 0.000000e+00 0.000000e+00 0.000000e+00 0.000000e+00 0.000000e+00 0.000000e+00 9.179729e-01 8.202712e-02 0.000000e+00
 0.000000e+00 0.000000e+00 0.000000e+00 0.000000e+00 0.000000e+00 0.000000e+00 0.000000e+00 0.000000e+00 0.000000e+00 0.000000e+00 9.179745e-01 8.202545e-02
 0.000000e+00 0.000000e+00 0.000000e+00 0.000000e+00 0.000000e+00 0.000000e+00 0.000000e+00 0.000000e+00 0.000000e+00 0.000000e+00 0.000000e+00 0.000000e+00
<ENDHMM>
~h "SEVEN"
<BEGINHMM>
<NUMSTATES> 12
<STATE> 2
<MEAN> 39
 -9.757071e+00 -4.318498e+00 -1.619115e+00 3.069599e+00 -4.022458e+00 -1.298523e+01 -5.873933e+00 3.388789e+00 -4.103747e+00 -1.193575e+01 -5.576291e-01 -6.277920e+00 6.767554e+01 1.726097e-01 -9.776232e-02 1.488706e-01 6.732005e-02 -9.041926e-02 -1.012799e-02 -1.297718e-01 1.132840e-01 1.745408e-03 -6.892543e-02 5.267925e-02 -1.765288e-02 4.628066e-02 2.760581e-03 -4.874641e-03 -8.104652e-04 -1.060742e-03 6.003344e-03 6.500885e-03 8.731937e-03 -1.012465e-02 -7.888595e-03 9.241784e-03 -6.343476e-03 7.099295e-04 -1.439724e-02
<VARIANCE> 39
 6.547646e+01 4.975798e+01 4.342683e+01 1.809371e+01 4.989154e+01 2.338231e+01 6.593053e+01 8.041698e+01 2.958805e+01 4.487798e+01 3.714428e+01 2.351567e+01 3.997078e+01 2.096238e+00 2.157775e+00 1.347217e+00 1.181383e+00 2.862568e+00 1.750978e+00 2.921088e+00 4.240699e+00 1.963819e+00 2.741067e+00 2.629220e+00 1.524339e+00 7.618379e-01 2.586953e-01 2.447938e-01 1.648187e-01 1.984494e-01 4.177603e-01 3.441767e-01 4.717628e-01 5.875746e-01 3.773438e-01 4.373135e-01 4.230615e-01 2.411760e-01 7.773867e-02
<GCONST> 1.125837e+02
<STATE> 3
<MEAN> 39
 -8.350521e+00 -5.233081e+00 -5.412745e-01 3.535253e+00 -4.453970e+00 -1.281217e+01 -6.506578e+00 3.839354e+00 -4.397789e+00 -1.209013e+01 -4.247806e-01 -6.372889e+00 6.747158e+01 1.646888e-01 -1.135776e-01 1.156997e-01 4.927048e-02 -2.802288e-02 4.116690e-02 -4.151179e-02 1.837212e-02 -5.798391e-02 1.146743e-02 -6.027151e-03 -9.726374e-03 -6.714240e-02 -2.983713e-03 -3.353810e-04 -5.645352e-03 -2.853465e-03 8.089771e-03 6.064247e-03 1.149172e-02 -1.204352e-02 -6.895777e-03 1.002606e-02 -7.247800e-03 9.188969e-04 -1.324220e-02
<VARIANCE> 39
 5.247991e+01 4.174540e+01 3.807347e+01 1.808669e+01 4.568635e+01 2.371530e+01 5.897679e+01 7.886455e+01 3.052003e+01 4.483171e+01 3.890464e+01 2.116029e+01 3.749535e+01 1.699669e+00 1.931133e+00 1.214147e+00 1.178716e+00 2.755437e+00 1.677231e+00 2.708090e+00 4.385706e+00 1.895510e+00 2.706235e+00 2.666453e+00 1.431818e+00 6.843269e-01 2.224102e-01 2.303600e-01 1.549759e-01 1.943513e-01 4.056281e-01 3.277402e-01 4.364972e-01 6.054641e-01 3.560169e-01 4.293031e-01 4.133089e-01 2.326835e-01 6.964247e-02
<GCONST> 1.103363e+02
<STATE> 4
<MEAN> 39
 -7.192878e+00 -6.116631e+00 1.150784e-01 3.795632e+00 -4.356705e+00 -1.225908e+01 -6.396512e+00 3.525316e+00 -5.089677e+00 -1.162091e+01 -7.646251e-01 -6.410846e+00 6.645012e+01 1.220772e-01 -9.985370e-02 5.503015e-02 1.978039e-02 3.603255e-02 8.538949e-02 4.959859e-02 -7.403535e-02 -1.013842e-01 8.668348e-02 -6.178904e-02 -4.145361e-03 -1.601634e-01 -6.181604e-03 2.572825e-03 -7.988635e-03 -3.938694e-03 7.154991e-03 4.870932e-03 1.031674e-02 -1.038216e-02 -4.263189e-03 8.526005e-03 -6.128787e-03 4.618135e-04 -1.000020e-02
<VARIANCE> 39
 3.669447e+01 3.219308e+01 3.103580e+01 1.732559e+01 4.069877e+01 2.516761e+01 5.294872e+01 7.723881e+01 3.137492e+01 4.592319e+01 3.995445e+01 1.876630e+01 3.974402e+01 1.278678e+00 1.639465e+00 1.054941e+00 1.141401e+00 2.502203e+00 1.582296e+00 2.405951e+00 4.264926e+00 1.825143e+00 2.546566e+00 2.575322e+00 1.348448e+00 5.651488e-01 1.775641e-01 2.061243e-01 1.424697e-01 1.879064e-01 3.777476e-01 3.094520e-01 3.936264e-01 5.986627e-01 3.370678e-01 4.094377e-01 3.934566e-01 2.292402e-01 5.860352e-02
<GCONST> 1.069600e+02
<STATE> 5
<MEAN> 39
 -6.449520e+00 -6.810967e+00 2.426138e-01 3.799767e+00 -3.820411e+00 -1.140588e+01 -5.654027e+00 2.586025e+00 -6.010206e+00 -1.064162e+01 -1.483503e+00 -6.426857e+00 6.482436e+01 6.795534e-02 -7.280999e-02 -1.001000e-02 -1.244250e-02 8.128341e-02 1.172186e-01 1.164685e-01 -1.398737e-01 -1.203790e-01 1.418792e-01 -1.006793e-01 -3.261389e-03 -2.231330e-01 -6.464073e-03 3.428828e-03 -7.415019e-03 -3.743884e-03 4.090479e-03 3.061348e-03 6.257453e-03 -6.157444e-03 -1.036692e-03 5.418658e-03 -3.542693e-03 -6.330720e-05 -6.092204e-03
<VARIANCE> 39
 2.279597e+01 2.315844e+01 2.508684e+01 1.636551e+01 3.562666e+01 2.666361e+01 4.834297e+01 7.423494e+01 3.091463e+01 4.677776e+01 3.929712e+01 1.679255e+01 4.358663e+01 9.062093e-01 1.326588e+00 8.959200e-01 1.081953e+00 2.169681e+00 1.484263e+00 2.091623e+00 3.917887e+00 1.762720e+00 2.309657e+00 2.388829e+00 1.290884e+00 4.362430e-01 1.339160e-01 1.760391e-01 1.298953e-01 1.809581e-01 3.408838e-01 2.923573e-01 3.533628e-01 5.691771e-01 3.231937e-01 3.826905e-01 3.700565e-01 2.314631e-01 4.683580e-02
<GCONST> 1.026591e+02
<STATE> 6
<MEAN> 39
 -6.118196e+00 -7.278123e+00 -9.464025e-02 3.574160e+00 -3.048520e+00 -1.036692e+01 -4.542659e+00 1.296155e+00 -6.968433e+00 -9.349362e+00 -2.408495e+00 -6.453825e+00 6.283483e+01 2.138625e-02 -4.583918e-02 -5.991149e-02 -3.726584e-02 9.796331e-02 1.330436e-01 1.453064e-01 -1.668380e-01 -1.157238e-01 1.689969e-01 -1.157761e-01 -5.336911e-03 -2.562658e-01 -4.833862e-03 2.989655e-03 -4.869096e-03 -2.368863e-03 4.799420e-04 9.544392e-04 1.335980e-03 -1.138288e-03 1.627827e-03 1.709717e-03 -5.670587e-04 -2.468506e-04 -2.617004e-03
<VARIANCE> 39
 1.313332e+01 1.601780e+01 2.094522e+01 1.539935e+01 3.017888e+01 2.702583e+01 4.337241e+01 6.757302e+01 2.862315e+01 4.543678e+01 3.619748e+01 1.535101e+01 4.596460e+01 6.187940e-01 1.031753e+00 7.582709e-01 1.013461e+00 1.832066e+00 1.400375e+00 1.832936e+00 3.439240e+00 1.709119e+00 2.056954e+00 2.161680e+00 1.262942e+00 3.221040e-01 9.767158e-02 1.451233e-01 1.189788e-01 1.743207e-01 3.028611e-01 2.791333e-01 3.235330e-01 5.247181e-01 3.145790e-01 3.554765e-01 3.488714e-01 2.385258e-01 3.624821e-02
<GCONST> 9.763741e+01
<STATE> 7
<MEAN> 39
 -6.091352e+00 -7.551638e+00 -7.267182e-01 3.210570e+00 -2.266738e+00 -9.271158e+00 -3.363857e+00 -3.672886e-02 -7.812819e+00 -7.967941e+00 -3.351917e+00 -6.502134e+00 6.069053e+01 -8.577419e-03 -2.469936e-02 -8.588994e-02 -4.812153e-02 8.815558e-02 1.325405e-01 1.378499e-01 -1.564865e-01 -9.529790e-02 1.679927e-01 -1.089868e-01 -7.264038e-03 -2.657136e-01 -2.646101e-03 2.228021e-03 -1.854621e-03 -4.805537e-04 -2.326719e-03 -9.537801e-04 -2.589839e-03 2.988319e-03 3.030278e-03 -1.544195e-03 1.738126e-03 -8.871718e-05 -8.552289e-05
<VARIANCE> 39
 7.521852e+00 1.104919e+01 1.783884e+01 1.427203e+01 2.440958e+01 2.566554e+01 3.688699e+01 5.690903e+01 2.507533e+01 4.105008e+01 3.108765e+01 1.432293e+01 4.555049e+01 4.219055e-01 7.836056e-01 6.541965e-01 9.456570e-01 1.543060e+00 1.341820e+00 1.659881e+00 2.936356e+00 1.661921e+00 1.839007e+00 1.947072e+00 1.258502e+00 2.343896e-01 7.117191e-02 1.177101e-01 1.105803e-01 1.679987e-01 2.700609e-01 2.714829e-01 3.070203e-01 4.760362e-01 3.102793e-01 3.333644e-01 3.336610e-01 2.485992e-01 2.801488e-02
<GCONST> 9.223058e+01
<STATE> 8
<MEAN> 39
 -6.232720e+00 -7.680724e+00 -1.466497e+00 2.825654e+00 -1.647243e+00 -8.234476e+00 -2.355341e+00 -1.165810e+00 -8.466452e+00 -6.690221e+00 -4.170979e+00 -6.560509e+00 5.854367e+01 -2.213492e-02 -9.133287e-03 -9.012298e-02 -4.453669e-02 6.158929e-02 1.192182e-01 1.067669e-01 -1.208227e-01 -6.967225e-02 1.459302e-01 -8.842544e-02 -7.093806e-03 -2.591398e-01 -8.774672e-04 1.662856e-03 4.277975e-04 1.115872e-03 -3.715887e-03 -2.204162e-03 -4.555129e-03 5.218874e-03 3.111518e-03 -3.565049e-03 2.855640e-03 1.793098e-04 1.513556e-03
<VARIANCE> 39
 4.638900e+00 7.856630e+00 1.500243e+01 1.286228e+01 1.908107e+01 2.286001e+01 2.958136e+01 4.442884e+01 2.135982e+01 3.447824e+01 2.536857e+01 1.353636e+01 4.259628e+01 3.008844e-01 5.953286e-01 5.850153e-01 8.838692e-01 1.326085e+00 1.309740e+00 1.564948e+00 2.494997e+00 1.620511e+00 1.683534e+00 1.779672e+00 1.267781e+00 1.743967e-01 5.395008e-02 9.627395e-02 1.050266e-01 1.619579e-01 2.457803e-01 2.693607e-01 3.018690e-01 4.332112e-01 3.091143e-01 3.198652e-01 3.256951e-01 2.595262e-01 2.245791e-02
<GCONST> 8.692883e+01
<STATE> 9
<MEAN> 39
 -6.432039e+00 -7.701154e+00 -2.175905e+00 2.515917e+00 -1.274652e+00 -7.335141e+00 -1.639367e+00 -1.958696e+00 -8.927482e+00 -5.636667e+00 -4.796103e+00 -6.609545e+00 5.649238e+01 -2.458994e-02 2.904717e-03 -8.111419e-02 -3.127223e-02 2.957832e-02 9.906901e-02 6.777024e-02 -7.575678e-02 -4.738143e-02 1.137695e-01 -6.359483e-02 -4.827817e-03 -2.427235e-01 1.091068e-04 1.312757e-03 1.496846e-03 1.923715e-03 -3.808880e-03 -2.612635e-03 -4.659095e-03 5.489637e-03 2.358417e-03 -4.130568e-03 2.901347e-03 3.491034e-04 2.457292e-03
<VARIANCE> 39
 3.241514e+00 5.895364e+00 1.234939e+01 1.130988e+01 1.502281e+01 1.946338e+01 2.302494e+01 3.312109e+01 1.833505e+01 2.753772e+01 2.044767e+01 1.288651e+01 3.800177e+01 2.338390e-01 4.658331e-01 5.452409e-01 8.313849e-01 1.180283e+00 1.296054e+00 1.522968e+00 2.162038e+00 1.586863e+00 1.596423e+00 1.670936e+00 1.282310e+00 1.376534e-01 4.410575e-02 8.132295e-02 1.023597e-01 1.567422e-01 2.301079e-01 2.708133e-01 3.034143e-01 4.021040e-01 3.099331e-01 3.160323e-01 3.239748e-01 2.694022e-01 1.923508e-02
<GCONST> 8.227961e+01
<STATE> 10
<MEAN> 39
 -6.626059e+00 -7.635095e+00 -2.789629e+00 2.330112e+00 -1.153794e+00 -6.603697e+00 -1.227647e+00 -2.400223e+00 -9.242511e+00 -4.843495e+00 -5.223981e+00 -6.635313e+00 5.459729e+01 -2.188207e-02 1.243314e-02 -6.794323e-02 -1.497412e-02 5.534692e-04 7.825995e-02 3.283903e-02 -3.474088e-02 -3.254679e-02 8.181616e-02 -4.134562e-02 -1.671204e-03 -2.203612e-01 4.650498e-04 9.980761e-04 1.577657e-03 1.941626e-03 -3.117498e-03 -2.333222e-03 -3.658387e-03 4.405134e-03 1.377140e-03 -3.598631e-03 2.335749e-03 3.631708e-04 3.012862e-03
<VARIANCE> 39
 2.573604e+00 4.732064e+00 1.018167e+01 9.900794e+00 1.251469e+01 1.635113e+01 1.828921e+01 2.485427e+01 1.633286e+01 2.179042e+01 1.701329e+01 1.234732e+01 3.260859e+01 2.006682e-01 3.850366e-01 5.280781e-01 7.922226e-01 1.091584e+00 1.288294e+00 1.508112e+00 1.942786e+00 1.563338e+00 1.567454e+00 1.613191e+00 1.296443e+00 1.173936e-01 3.934423e-02 7.199021e-02 1.024095e-01 1.534896e-01 2.210369e-01 2.727572e-01 3.067147e-01 3.826346e-01 3.117760e-01 3.202492e-01 3.259704e-01 2.768345e-01 1.764915e-02
<GCONST> 7.869604e+01
<STATE> 11
<MEAN> 39
 -6.791036e+00 -7.502296e+00 -3.301025e+00 2.268829e+00 -1.240386e+00 -6.029246e+00 -1.062820e+00 -2.557471e+00 -9.472170e+00 -4.281906e+00 -5.491233e+00 -6.635205e+00 5.289630e+01 -1.775546e-02 1.935597e-02 -5.633489e-02 -7.223131e-04 -2.126144e-02 6.111439e-02 7.633682e-03 -5.210530e-03 -2.495991e-02 5.623499e-02 -2.486560e-02 1.091064e-03 -1.943768e-01 5.419635e-04 6.794872e-04 1.210744e-03 1.535113e-03 -2.107281e-03 -1.689490e-03 -2.332056e-03 2.796827e-03 6.229029e-04 -2.636089e-03 1.583538e-03 2.620826e-04 3.333524e-03
<VARIANCE> 39
 2.257144e+00 4.071074e+00 8.705123e+00 8.846130e+00 1.125522e+01 1.402474e+01 1.548220e+01 1.980437e+01 1.528221e+01 1.786792e+01 1.500123e+01 1.191640e+01 2.700866e+01 1.863627e-01 3.393769e-01 5.276381e-01 7.704684e-01 1.041774e+00 1.275460e+00 1.500008e+00 1.809329e+00 1.551447e+00 1.575423e+00 1.587497e+00 1.306551e+00 1.066478e-01 3.754644e-02 6.674939e-02 1.047261e-01 1.533205e-01 2.158169e-01 2.723428e-01 3.079512e-01 3.697441e-01 3.141347e-01 3.284071e-01 3.285566e-01 2.809651e-01 1.692374e-02
<GCONST> 7.626470e+01
<TRANSP> 12
 0.000000e+00 1.000000e+00 0.000000e+00 0.000000e+00 0.000000e+00 0.000000e+00 0.000000e+00 0.000000e+00 0.000000e+00 0.000000e+00 0.000000e+00 0.000000e+00
 0.000000e+00 8.786386e-01 1.213614e-01 0.000000e+00 0.000000e+00 0.000000e+00 0.000000e+00 0.000000e+00 0.000000e+00 0.000000e+00 0.000000e+00 0.000000e+00
 0.000000e+00 0.000000e+00 8.786387e-01 1.213613e-01 0.000000e+00 0.000000e+00 0.000000e+00 0.000000e+00 0.000000e+00 0.000000e+00 0.000000e+00 0.000000e+00
 0.000000e+00 0.000000e+00 0.000000e+00 8.786384e-01 1.213616e-01 0.000000e+00 0.000000e+00 0.000000e+00 0.000000e+00 0.000000e+00 0.000000e+00 0.000000e+00
 0.000000e+00 0.000000e+00 0.000000e+00 0.000000e+00 8.786383e-01 1.213617e-01 0.000000e+00 0.000000e+00 0.000000e+00 0.000000e+00 0.000000e+00 0.000000e+00
 0.000000e+00 0.000000e+00 0.000000e+00 0.000000e+00 0.000000e+00 8.786384e-01 1.213616e-01 0.000000e+00 0.000000e+00 0.000000e+00 0.000000e+00 0.000000e+00
 0.000000e+00 0.000000e+00 0.000000e+00 0.000000e+00 0.000000e+00 0.000000e+00 8.786384e-01 1.213615e-01 0.000000e+00 0.000000e+00 0.000000e+00 0.000000e+00
 0.000000e+00 0.000000e+00 0.000000e+00 0.000000e+00 0.000000e+00 0.000000e+00 0.000000e+00 8.786383e-01 1.213617e-01 0.000000e+00 0.000000e+00 0.000000e+00
 0.000000e+00 0.000000e+00 0.000000e+00 0.000000e+00 0.000000e+00 0.000000e+00 0.000000e+00 0.000000e+00 8.786384e-01 1.213616e-01 0.000000e+00 0.000000e+00
 0.000000e+00 0.000000e+00 0.000000e+00 0.000000e+00 0.000000e+00 0.000000e+00 0.000000e+00 0.000000e+00 0.000000e+00 8.786386e-01 1.213614e-01 0.000000e+00
 0.000000e+00 0.000000e+00 0.000000e+00 0.000000e+00 0.000000e+00 0.000000e+00 0.000000e+00 0.000000e+00 0.000000e+00 0.000000e+00 8.786407e-01 1.213593e-01
 0.000000e+00 0.000000e+00 0.000000e+00 0.000000e+00 0.000000e+00 0.000000e+00 0.000000e+00 0.000000e+00 0.000000e+00 0.000000e+00 0.000000e+00 0.000000e+00
<ENDHMM>
~h "THREE"
<BEGINHMM>
<NUMSTATES> 12
<STATE> 2
<MEAN> 39
 -1.086504e+01 -3.459132e+00 6.355423e+00 -9.135296e-01 -6.952475e+00 -1.132431e+01 -9.439753e+00 -1.836421e+00 -1.050184e+01 -1.142983e+01 1.808329e+00 -3.508517e+00 6.789818e+01 1.112183e-01 -7.603131e-02 1.707497e-01 -5.639317e-02 -9.380621e-02 7.342239e-02 -1.053904e-01 -2.941602e-02 -5.940140e-02 1.561521e-02 3.635922e-02 -2.640841e-02 -7.188093e-03 2.064972e-03 -3.960771e-03 -1.099965e-02 2.638668e-03 6.312850e-03 5.746060e-03 9.936953e-03 -2.266001e-03 2.289048e-03 7.638085e-03 -8.098402e-03 -2.689258e-03 -1.179400e-02
<VARIANCE> 39
 4.146025e+01 3.239219e+01 1.513205e+02 3.589534e+01 6.459487e+01 5.344786e+01 1.036827e+02 3.433427e+01 3.327692e+01 4.392476e+01 5.756516e+01 2.226860e+01 4.879797e+01 1.408060e+00 1.168136e+00 1.881628e+00 1.431805e+00 2.141711e+00 1.812909e+00 2.372015e+00 2.098738e+00 1.890947e+00 1.702993e+00 2.345655e+00 1.698979e+00 4.197629e-01 1.866347e-01 1.636690e-01 1.552396e-01 2.202530e-01 3.679028e-01 2.998080e-01 3.663132e-01 3.864160e-01 3.438971e-01 3.090224e-01 4.014121e-01 3.314306e-01 3.969550e-02
<GCONST> 1.097603e+02
<STATE> 3
<MEAN> 39
 -9.813190e+00 -4.312302e+00 7.136824e+00 -1.207834e+00 -7.371353e+00 -1.041763e+01 -9.746733e+00 -2.207292e+00 -1.086163e+01 -1.086326e+01 1.651908e+00 -3.863582e+00 6.714779e+01 1.117236e-01 -9.681010e-02 4.461313e-02 -2.067207e-02 -2.261962e-02 1.093687e-01 8.759089e-07 -4.197692e-02 -3.046560e-02 7.874098e-02 -3.843048e-02 -4.493853e-02 -1.110896e-01 -7.030623e-04 -1.633024e-03 -1.441075e-02 4.205429e-03 7.995487e-03 2.867285e-03 1.169118e-02 -8.216610e-04 3.460177e-03 6.234118e-03 -7.853523e-03 -1.628906e-03 -1.070027e-02
<VARIANCE> 39
 3.072603e+01 2.631695e+01 1.389161e+02 3.361231e+01 5.977806e+01 5.035323e+01 9.925146e+01 3.238888e+01 3.050126e+01 4.471258e+01 5.511059e+01 2.149038e+01 5.478520e+01 1.035365e+00 8.845097e-01 1.749230e+00 1.349420e+00 1.944264e+00 1.635329e+00 2.299628e+00 1.921950e+00 1.738766e+00 1.618405e+00 2.172220e+00 1.552353e+00 3.468593e-01 1.433557e-01 1.297391e-01 1.428156e-01 2.097074e-01 3.298525e-01 2.732545e-01 3.542004e-01 3.601268e-01 3.149606e-01 2.943869e-01 3.750243e-01 2.979882e-01 3.178830e-02
<GCONST> 1.058330e+02
<STATE> 4
<MEAN> 39
 -8.878532e+00 -5.229802e+00 6.727654e+00 -1.131948e+00 -7.135535e+00 -9.340694e+00 -9.119439e+00 -2.607404e+00 -1.093483e+01 -9.847517e+00 9.067516e-01 -4.330898e+00 6.556841e+01 9.425097e-02 -9.940284e-02 -8.505854e-02 2.042621e-02 4.716013e-02 1.190958e-01 9.850118e-02 -4.077403e-02 1.928074e-03 1.207470e-01 -9.766772e-02 -5.368839e-02 -1.946514e-01 -2.308680e-03 2.183204e-04 -1.338946e-02 4.329188e-03 6.996888e-03 1.517552e-05 9.763084e-03 5.851583e-04 3.480750e-03 3.606915e-03 -5.582538e-03 -5.095674e-04 -8.011693e-03
<VARIANCE> 39
 2.059896e+01 2.093071e+01 1.291577e+02 3.031114e+01 5.483094e+01 4.380537e+01 9.497366e+01 2.889104e+01 2.751334e+01 4.442723e+01 5.209605e+01 2.027313e+01 6.450211e+01 7.090336e-01 6.528792e-01 1.549513e+00 1.224798e+00 1.715412e+00 1.457119e+00 2.175683e+00 1.751944e+00 1.590229e+00 1.563265e+00 1.969379e+00 1.412590e+00 2.775117e-01 1.031773e-01 1.008446e-01 1.311059e-01 1.960932e-01 2.923659e-01 2.495816e-01 3.436794e-01 3.374101e-01 2.901556e-01 2.895673e-01 3.500795e-01 2.689117e-01 2.588026e-02
<GCONST> 1.012390e+02
<STATE> 5
<MEAN> 39
 -8.155725e+00 -6.083609e+00 5.310653e+00 -7.142587e-01 -6.384434e+00 -8.291519e+00 -7.789076e+00 -2.929015e+00 -1.074907e+01 -8.606570e+00 -2.137487e-01 -4.829278e+00 6.339847e+01 6.919057e-02 -8.890592e-02 -1.839867e-01 5.483129e-02 9.555048e-02 1.087214e-01 1.631110e-01 -2.932671e-02 2.832885e-02 1.369406e-01 -1.303460e-01 -5.350738e-02 -2.494731e-01 -2.812542e-03 1.523055e-03 -8.915652e-03 3.225971e-03 4.079637e-03 -1.799629e-03 5.235746e-03 1.476452e-03 2.467405e-03 7.875210e-04 -2.473211e-03 4.043034e-04 -4.730619e-03
<VARIANCE> 39
 1.266376e+01 1.624001e+01 1.205361e+02 2.670188e+01 4.954903e+01 3.538205e+01 8.863972e+01 2.475459e+01 2.477031e+01 4.180423e+01 4.751630e+01 1.867951e+01 7.270144e+01 4.675834e-01 4.922023e-01 1.322634e+00 1.089316e+00 1.504240e+00 1.311607e+00 2.033726e+00 1.618110e+00 1.477602e+00 1.545535e+00 1.786859e+00 1.309819e+00 2.228071e-01 7.224832e-02 8.043941e-02 1.219401e-01 1.828743e-01 2.625685e-01 2.328194e-01 3.359534e-01 3.210880e-01 2.748505e-01 2.937837e-01 3.303998e-01 2.501084e-01 2.209390e-02
<GCONST> 9.640703e+01
<STATE> 6
<MEAN> 39
 -7.665513e+00 -6.786789e+00 3.277889e+00 -6.073761e-02 -5.371423e+00 -7.388833e+00 -6.135721e+00 -3.111120e+00 -1.039532e+01 -7.356268e+00 -1.465406e+00 -5.290976e+00 6.090136e+01 4.386874e-02 -6.963353e-02 -2.336164e-01 7.565410e-02 1.132738e-01 8.904294e-02 1.821093e-01 -1.315226e-02 4.246430e-02 1.306299e-01 -1.361428e-01 -4.655400e-02 -2.754512e-01 -2.646431e-03 2.370544e-03 -3.154593e-03 1.641285e-03 6.093846e-04 -2.308012e-03 1.328399e-04 1.772847e-03 9.363947e-04 -1.416972e-03 3.228381e-04 1.031392e-03 -1.743089e-03
<VARIANCE> 39
 7.376369e+00 1.229430e+01 1.076007e+02 2.296988e+01 4.274271e+01 2.719908e+01 7.739086e+01 2.096190e+01 2.220731e+01 3.688010e+01 4.099104e+01 1.691863e+01 7.562657e+01 3.130930e-01 3.952718e-01 1.112046e+00 9.677160e-01 1.338666e+00 1.208985e+00 1.901217e+00 1.530072e+00 1.415717e+00 1.555913e+00 1.646717e+00 1.256119e+00 1.850162e-01 5.202342e-02 6.838042e-02 1.158718e-01 1.719049e-01 2.424672e-01 2.234734e-01 3.304012e-01 3.115814e-01 2.706303e-01 3.037159e-01 3.161919e-01 2.433569e-01 1.990772e-02
<GCONST> 9.166163e+01
<STATE> 7
<MEAN> 39
 -7.387175e+00 -7.285582e+00 1.074015e+00 7.019091e-01 -4.362979e+00 -6.662857e+00 -4.543498e+00 -3.139456e+00 -9.990102e+00 -6.254013e+00 -2.647945e+00 -5.667768e+00 5.830701e+01 2.187050e-02 -4.543615e-02 -2.345574e-01 8.294587e-02 1.026292e-01 6.986275e-02 1.609369e-01 3.086941e-03 4.312087e-02 1.098035e-01 -1.220338e-01 -3.533378e-02 -2.783250e-01 -2.202838e-03 2.756563e-03 1.763713e-03 3.210905e-04 -2.175590e-03 -1.860572e-03 -3.691625e-03 1.638027e-03 -5.040927e-04 -2.613432e-03 2.163750e-03 1.357864e-03 4.373323e-04
<VARIANCE> 39
 4.334480e+00 9.211442e+00 8.794831e+01 1.928538e+01 3.437120e+01 2.076822e+01 6.165130e+01 1.810853e+01 1.970456e+01 3.084061e+01 3.338546e+01 1.526567e+01 7.253701e+01 2.269724e-01 3.431013e-01 9.409164e-01 8.721881e-01 1.221267e+00 1.143969e+00 1.785363e+00 1.481789e+00 1.398653e+00 1.576568e+00 1.545251e+00 1.246664e+00 1.601124e-01 4.080451e-02 6.248316e-02 1.125770e-01 1.635521e-01 2.303019e-01 2.196816e-01 3.254932e-01 3.074272e-01 2.749931e-01 3.151364e-01 3.056881e-01 2.468230e-01 1.865917e-02
<GCONST> 8.722401e+01
<STATE> 8
<MEAN> 39
 -7.283939e+00 -7.560061e+00 -9.420433e-01 1.475241e+00 -3.559000e+00 -6.080388e+00 -3.282825e+00 -3.031230e+00 -9.635565e+00 -5.379550e+00 -3.638854e+00 -5.933432e+00 5.578060e+01 4.267350e-03 -2.050857e-02 -2.015710e-01 8.127212e-02 7.372856e-02 5.674691e-02 1.164891e-01 1.667221e-02 3.357683e-02 8.349219e-02 -9.727260e-02 -2.244764e-02 -2.660114e-01 -1.704964e-03 2.641470e-03 4.586689e-03 -4.062314e-04 -3.615743e-03 -1.030751e-03 -5.322418e-03 1.294989e-03 -1.403213e-03 -2.831561e-03 2.978766e-03 1.391140e-03 1.745073e-03
<VARIANCE> 39
 2.823087e+00 7.094357e+00 6.450157e+01 1.600631e+01 2.586032e+01 1.656232e+01 4.497577e+01 1.629367e+01 1.737425e+01 2.511836e+01 2.614055e+01 1.395634e+01 6.498058e+01 1.855598e-01 3.170722e-01 8.102429e-01 8.044960e-01 1.140275e+00 1.106298e+00 1.681040e+00 1.460388e+00 1.406261e+00 1.591738e+00 1.471021e+00 1.266705e+00 1.427119e-01 3.574464e-02 6.022790e-02 1.112717e-01 1.575586e-01 2.230509e-01 2.190925e-01 3.198802e-01 3.064002e-01 2.829326e-01 3.244330e-01 2.975719e-01 2.566252e-01 1.783305e-02
<GCONST> 8.326033e+01
<STATE> 9
<MEAN> 39
 -7.316387e+00 -7.626573e+00 -2.571055e+00 2.207089e+00 -3.056556e+00 -5.582438e+00 -2.459959e+00 -2.818267e+00 -9.393102e+00 -4.742103e+00 -4.389762e+00 -6.084765e+00 5.342103e+01 -8.919025e-03 1.000546e-03 -1.544051e-01 7.571501e-02 3.883827e-02 5.068360e-02 6.788800e-02 2.652045e-02 1.924580e-02 5.890674e-02 -6.967776e-02 -1.052569e-02 -2.453012e-01 -1.226016e-03 2.102061e-03 5.222292e-03 -6.408890e-04 -3.710971e-03 -3.081384e-04 -4.960321e-03 8.731163e-04 -1.652126e-03 -2.386370e-03 3.012110e-03 1.142950e-03 2.434434e-03
<VARIANCE> 39
 2.196620e+00 5.895079e+00 4.256190e+01 1.345060e+01 1.889272e+01 1.426431e+01 3.109508e+01 1.528477e+01 1.546249e+01 2.064674e+01 2.037330e+01 1.310056e+01 5.514963e+01 1.691567e-01 3.045222e-01 7.121649e-01 7.615112e-01 1.083723e+00 1.087025e+00 1.585778e+00 1.453974e+00 1.416275e+00 1.593141e+00 1.419937e+00 1.298900e+00 1.290739e-01 3.420335e-02 5.974944e-02 1.109549e-01 1.537488e-01 2.183601e-01 2.200559e-01 3.130814e-01 3.066489e-01 2.894962e-01 3.294653e-01 2.924341e-01 2.683853e-01 1.711954e-02
<GCONST> 7.990624e+01
<STATE> 10
<MEAN> 39
 -7.446933e+00 -7.531358e+00 -3.772862e+00 2.880419e+00 -2.857147e+00 -5.116827e+00 -2.038157e+00 -2.536952e+00 -9.279378e+00 -4.304050e+00 -4.904566e+00 -6.140882e+00 5.127965e+01 -1.801482e-02 1.637401e-02 -1.094017e-01 6.928443e-02 7.775832e-03 4.945383e-02 2.874298e-02 3.229036e-02 5.109916e-03 3.992774e-02 -4.432876e-02 -1.856424e-03 -2.202083e-01 -7.928805e-04 1.364036e-03 4.386913e-03 -6.550771e-04 -2.896631e-03 5.747576e-05 -3.503858e-03 4.140676e-04 -1.395175e-03 -1.700553e-03 2.568070e-03 6.853788e-04 2.834077e-03
<VARIANCE> 39
 2.003992e+00 5.378269e+00 2.593547e+01 1.166187e+01 1.427886e+01 1.321689e+01 2.168479e+01 1.473985e+01 1.411955e+01 1.766530e+01 1.649656e+01 1.265128e+01 4.474046e+01 1.646597e-01 2.988541e-01 6.400271e-01 7.388820e-01 1.045500e+00 1.079211e+00 1.503986e+00 1.454989e+00 1.415367e+00 1.580366e+00 1.397536e+00 1.327664e+00 1.174360e-01 3.425873e-02 6.001558e-02 1.106657e-01 1.521289e-01 2.150982e-01 2.215556e-01 3.055102e-01 3.072003e-01 2.920010e-01 3.298780e-01 2.923890e-01 2.781709e-01 1.637867e-02
<GCONST> 7.721770e+01
<STATE> 11
<MEAN> 39
 -7.641611e+00 -7.333415e+00 -4.614443e+00 3.492621e+00 -2.899427e+00 -4.656085e+00 -1.902142e+00 -2.224999e+00 -9.278199e+00 -4.010151e+00 -5.216770e+00 -6.137880e+00 4.938354e+01 -2.344943e-02 2.511249e-02 -7.514772e-02 6.287650e-02 -1.410866e-02 4.975323e-02 4.074534e-03 3.379356e-02 -5.632738e-03 2.703991e-02 -2.395554e-02 2.224942e-03 -1.923893e-01 -4.056119e-04 6.637023e-04 3.040471e-03 -6.332540e-04 -1.728021e-03 5.098415e-05 -1.938374e-03 -5.350386e-05 -8.663747e-04 -1.115726e-03 1.887362e-03 1.709744e-04 3.125838e-03
<VARIANCE> 39
 1.982222e+00 5.238122e+00 1.545095e+01 1.043758e+01 1.178811e+01 1.275696e+01 1.633683e+01 1.436451e+01 1.331595e+01 1.593605e+01 1.433586e+01 1.245096e+01 3.476125e+01 1.644273e-01 2.968444e-01 5.893827e-01 7.315187e-01 1.022763e+00 1.075939e+00 1.439911e+00 1.459229e+00 1.403184e+00 1.558946e+00 1.410267e+00 1.340911e+00 1.071028e-01 3.468322e-02 6.053405e-02 1.098600e-01 1.524906e-01 2.128520e-01 2.226342e-01 2.978120e-01 3.077544e-01 2.907955e-01 3.269935e-01 2.990860e-01 2.830248e-01 1.560169e-02
<GCONST> 7.514844e+01
<TRANSP> 12
 0.000000e+00 1.000000e+00 0.000000e+00 0.000000e+00 0.000000e+00 0.000000e+00 0.000000e+00 0.000000e+00 0.000000e+00 0.000000e+00 0.000000e+00 0.000000e+00
 0.000000e+00 8.941959e-01 1.058042e-01 0.000000e+00 0.000000e+00 0.000000e+00 0.000000e+00 0.000000e+00 0.000000e+00 0.000000e+00 0.000000e+00 0.000000e+00
 0.000000e+00 0.000000e+00 8.941957e-01 1.058043e-01 0.000000e+00 0.000000e+00 0.000000e+00 0.000000e+00 0.000000e+00 0.000000e+00 0.000000e+00 0.000000e+00
 0.000000e+00 0.000000e+00 0.000000e+00 8.941958e-01 1.058042e-01 0.000000e+00 0.000000e+00 0.000000e+00 0.000000e+00 0.000000e+00 0.000000e+00 0.000000e+00
 0.000000e+00 0.000000e+00 0.000000e+00 0.000000e+00 8.941956e-01 1.058045e-01 0.000000e+00 0.000000e+00 0.000000e+00 0.000000e+00 0.000000e+00 0.000000e+00
 0.000000e+00 0.000000e+00 0.000000e+00 0.000000e+00 0.000000e+00 8.941957e-01 1.058043e-01 0.000000e+00 0.000000e+00 0.000000e+00 0.000000e+00 0.000000e+00
 0.000000e+00 0.000000e+00 0.000000e+00 0.000000e+00 0.000000e+00 0.000000e+00 8.941956e-01 1.058044e-01 0.000000e+00 0.000000e+00 0.000000e+00 0.000000e+00
 0.000000e+00 0.000000e+00 0.000000e+00 0.000000e+00 0.000000e+00 0.000000e+00 0.000000e+00 8.941957e-01 1.058043e-01 0.000000e+00 0.000000e+00 0.000000e+00
 0.000000e+00 0.000000e+00 0.000000e+00 0.000000e+00 0.000000e+00 0.000000e+00 0.000000e+00 0.000000e+00 8.941956e-01 1.058043e-01 0.000000e+00 0.000000e+00
 0.000000e+00 0.000000e+00 0.000000e+00 0.000000e+00 0.000000e+00 0.000000e+00 0.000000e+00 0.000000e+00 0.000000e+00 8.941962e-01 1.058038e-01 0.000000e+00
 0.000000e+00 0.000000e+00 0.000000e+00 0.000000e+00 0.000000e+00 0.000000e+00 0.000000e+00 0.000000e+00 0.000000e+00 0.000000e+00 8.941977e-01 1.058022e-01
 0.000000e+00 0.000000e+00 0.000000e+00 0.000000e+00 0.000000e+00 0.000000e+00 0.000000e+00 0.000000e+00 0.000000e+00 0.000000e+00 0.000000e+00 0.000000e+00
<ENDHMM>
~h "ONE"
<BEGINHMM>
<NUMSTATES> 12
<STATE> 2
<MEAN> 39
 -4.300169e+00 -7.336041e+00 -5.077354e+00 -2.615411e+00 -6.887598e-01 -5.046763e+00 1.234999e-01 -5.515525e+00 -7.337383e+00 -8.607031e+00 -4.958827e+00 -5.011464e+00 6.315730e+01 -3.289201e-02 -1.997022e-02 2.614021e-02 1.192610e-01 5.796978e-02 -1.881386e-02 -3.712951e-02 8.600666e-03 -2.091939e-02 9.518906e-02 -2.413185e-02 -3.330760e-02 -8.202153e-02 -5.036369e-03 -1.108963e-03 1.914565e-03 5.845889e-03 -1.731172e-03 -4.243961e-04 -6.017076e-04 2.479791e-03 -1.007314e-03 6.112912e-03 -7.099073e-04 -2.285235e-03 -1.336100e-02
<VARIANCE> 39
 1.413494e+01 1.287168e+01 3.197699e+01 1.056354e+02 3.299689e+01 3.357243e+01 4.744801e+01 2.359916e+01 2.668424e+01 6.564855e+01 2.597491e+01 2.935368e+01 7.716601e+01 3.845670e-01 7.014687e-01 1.406241e+00 2.568106e+00 1.954175e+00 1.723275e+00 2.998408e+00 2.078498e+00 2.211994e+00 2.318519e+00 2.117914e+00 1.911639e+00 6.986765e-01 5.631318e-02 1.073180e-01 1.727196e-01 2.708508e-01 3.008741e-01 2.768659e-01 4.587641e-01 3.932175e-01 4.313604e-01 3.574728e-01 4.176534e-01 3.448405e-01 3.925671e-02
<GCONST> 1.037663e+02
<STATE> 3
<MEAN> 39
 -4.872395e+00 -7.561466e+00 -4.761066e+00 -1.263117e+00 -3.071344e-01 -5.206708e+00 -2.332455e-01 -5.292657e+00 -7.577689e+00 -7.438554e+00 -5.199816e+00 -5.416846e+00 6.164609e+01 -7.109725e-02 -2.319143e-02 3.493578e-02 1.474305e-01 3.035444e-02 -1.482816e-02 -3.529924e-02 3.034125e-02 -2.532123e-02 1.302963e-01 -2.585165e-02 -4.368161e-02 -1.903756e-01 -3.420579e-03 1.112046e-05 3.635931e-04 1.584155e-03 -3.176478e-03 7.692330e-04 6.333574e-04 2.124991e-03 -1.939118e-04 2.454156e-03 5.149335e-05 -4.609420e-04 -1.015101e-02
<VARIANCE> 39
 1.381680e+01 1.084628e+01 2.755498e+01 9.111033e+01 2.728783e+01 2.924821e+01 4.154704e+01 2.291425e+01 2.443927e+01 5.820387e+01 2.485653e+01 2.539313e+01 8.000387e+01 3.185005e-01 5.960175e-01 1.183892e+00 2.179462e+00 1.658177e+00 1.550908e+00 2.591410e+00 1.924903e+00 2.038219e+00 2.143707e+00 2.014438e+00 1.753186e+00 5.179840e-01 4.987383e-02 9.547487e-02 1.506107e-01 2.415892e-01 2.675293e-01 2.537067e-01 4.040141e-01 3.630247e-01 3.976291e-01 3.472082e-01 3.952014e-01 3.249072e-01 3.099281e-02
<GCONST> 9.928525e+01
<STATE> 4
<MEAN> 39
 -5.684874e+00 -7.754202e+00 -4.461509e+00 1.096087e-01 -2.297490e-01 -5.263994e+00 -5.179350e-01 -4.902608e+00 -7.813730e+00 -6.161998e+00 -5.415528e+00 -5.816183e+00 5.937849e+01 -9.060860e-02 -1.697244e-02 2.823197e-02 1.390871e-01 -2.129163e-03 -1.279101e-03 -2.500534e-02 4.592503e-02 -2.294806e-02 1.312324e-01 -2.136299e-02 -3.816662e-02 -2.574742e-01 -1.364546e-03 9.065225e-04 -1.187565e-03 -1.812237e-03 -3.283731e-03 1.671316e-03 1.219746e-03 1.345438e-03 4.016209e-04 -9.437656e-04 6.470759e-04 9.920229e-04 -5.496410e-03
<VARIANCE> 39
 1.309607e+01 8.745760e+00 2.188816e+01 6.974013e+01 2.202252e+01 2.437145e+01 3.416983e+01 2.177534e+01 2.154668e+01 4.784348e+01 2.295963e+01 2.087628e+01 8.158907e+01 2.672739e-01 5.004799e-01 9.612133e-01 1.758509e+00 1.395866e+00 1.388197e+00 2.199266e+00 1.758412e+00 1.857599e+00 1.972287e+00 1.883082e+00 1.586365e+00 3.547798e-01 4.518477e-02 8.492845e-02 1.312810e-01 2.120938e-01 2.396943e-01 2.358312e-01 3.584107e-01 3.336726e-01 3.637194e-01 3.383911e-01 3.687105e-01 3.034956e-01 2.459288e-02
<GCONST> 9.391135e+01
<STATE> 5
<MEAN> 39
 -6.566343e+00 -7.848068e+00 -4.294181e+00 1.263719e+00 -4.281929e-01 -5.161090e+00 -6.947573e-01 -4.414449e+00 -8.003736e+00 -5.034618e+00 -5.567521e+00 -6.103250e+00 5.675450e+01 -9.240863e-02 -4.900809e-03 1.137462e-02 1.113261e-01 -2.863923e-02 1.688220e-02 -1.400132e-02 5.356726e-02 -1.755351e-02 1.086411e-01 -1.378386e-02 -2.428034e-02 -2.823061e-01 3.567543e-04 1.377141e-03 -1.951222e-03 -3.125096e-03 -2.395685e-03 1.947598e-03 9.577993e-04 4.961827e-04 5.523330e-04 -2.873312e-03 8.206580e-04 1.517119e-03 -1.275225e-03
<VARIANCE> 39
 1.155094e+01 7.018087e+00 1.651109e+01 4.796183e+01 1.818370e+01 2.015305e+01 2.722345e+01 2.043242e+01 1.872188e+01 3.687905e+01 2.072422e+01 1.696480e+01 7.820065e+01 2.332979e-01 4.289704e-01 7.825560e-01 1.390442e+00 1.204893e+00 1.259911e+00 1.892031e+00 1.615369e+00 1.697673e+00 1.833394e+00 1.746650e+00 1.447892e+00 2.402928e-01 4.200815e-02 7.732197e-02 1.181969e-01 1.883223e-01 2.206054e-01 2.248724e-01 3.283737e-01 3.101453e-01 3.343766e-01 3.330828e-01 3.423666e-01 2.853787e-01 2.035637e-02
<GCONST> 8.844803e+01
<STATE> 6
<MEAN> 39
 -7.386272e+00 -7.813995e+00 -4.299057e+00 2.137726e+00 -8.082362e-01 -4.893548e+00 -7.945023e-01 -3.896368e+00 -8.143057e+00 -4.183288e+00 -5.651163e+00 -6.251955e+00 5.410510e+01 -8.222497e-02 8.955503e-03 -6.788382e-03 8.279747e-02 -4.397405e-02 3.358357e-02 -8.581142e-03 5.429639e-02 -1.291487e-02 7.765432e-02 -7.083678e-03 -1.053488e-02 -2.753446e-01 1.369238e-03 1.422051e-03 -1.771656e-03 -2.670984e-03 -1.168600e-03 1.581654e-03 2.079938e-04 -1.552958e-04 3.743652e-04 -3.203502e-03 5.828682e-04 1.236195e-03 1.621868e-03
<VARIANCE> 39
 9.430748e+00 5.862791e+00 1.239176e+01 3.076476e+01 1.564466e+01 1.713433e+01 2.176076e+01 1.910101e+01 1.644869e+01 2.777588e+01 1.854155e+01 1.424347e+01 6.957754e+01 2.114377e-01 3.822671e-01 6.634604e-01 1.115982e+00 1.086612e+00 1.172101e+00 1.683340e+00 1.511395e+00 1.573479e+00 1.733401e+00 1.622922e+00 1.349530e+00 1.734388e-01 3.968734e-02 7.261109e-02 1.117152e-01 1.725460e-01 2.094847e-01 2.197156e-01 3.116813e-01 2.938361e-01 3.121828e-01 3.309233e-01 3.192452e-01 2.719897e-01 1.784042e-02
<GCONST> 8.358513e+01
<STATE> 7
<MEAN> 39
 -8.074554e+00 -7.655962e+00 -4.443945e+00 2.795684e+00 -1.263246e+00 -4.503475e+00 -8.805286e-01 -3.399173e+00 -8.250103e+00 -3.613648e+00 -5.690972e+00 -6.296281e+00 5.164528e+01 -6.673712e-02 2.130989e-02 -1.946171e-02 6.375987e-02 -4.835721e-02 4.434533e-02 -1.024612e-02 5.045815e-02 -1.057681e-02 4.994362e-02 -3.850813e-03 -1.872417e-03 -2.493386e-01 1.697797e-03 1.161204e-03 -1.029529e-03 -1.541037e-03 -1.106759e-04 8.357011e-04 -4.633251e-04 -5.232613e-04 1.430815e-04 -2.535163e-03 1.767078e-04 6.316424e-04 3.222227e-03
<VARIANCE> 39
 7.292770e+00 5.219567e+00 9.689939e+00 1.970434e+01 1.389277e+01 1.518526e+01 1.797331e+01 1.792066e+01 1.487261e+01 2.164274e+01 1.666346e+01 1.264550e+01 5.772905e+01 1.959835e-01 3.541504e-01 5.981091e-01 9.396401e-01 1.023797e+00 1.118854e+00 1.551373e+00 1.444050e+00 1.488627e+00 1.665667e+00 1.522000e+00 1.285392e+00 1.384206e-01 3.775714e-02 6.986625e-02 1.102148e-01 1.642202e-01 2.040603e-01 2.181937e-01 3.023228e-01 2.836525e-01 2.977504e-01 3.299454e-01 3.008891e-01 2.625139e-01 1.641191e-02
<GCONST> 7.968945e+01
<STATE> 8
<MEAN> 39
 -8.613791e+00 -7.400304e+00 -4.661351e+00 3.336741e+00 -1.708786e+00 -4.056398e+00 -1.005912e+00 -2.952579e+00 -8.343847e+00 -3.261506e+00 -5.721328e+00 -6.290265e+00 4.948867e+01 -5.102456e-02 3.019999e-02 -2.441666e-02 5.476118e-02 -4.493720e-02 4.771697e-02 -1.610973e-02 4.438464e-02 -9.746188e-03 3.071720e-02 -3.992875e-03 1.233670e-03 -2.140958e-01 1.572548e-03 7.477672e-04 -2.199359e-04 -6.442521e-04 5.600131e-04 6.538830e-05 -6.767225e-04 -6.586655e-04 5.127658e-05 -1.579873e-03 -8.057622e-05 1.337621e-04 3.919055e-03
<VARIANCE> 39
 5.563421e+00 4.893324e+00 8.072936e+00 1.372978e+01 1.256288e+01 1.388575e+01 1.557083e+01 1.694351e+01 1.388935e+01 1.815868e+01 1.520673e+01 1.179815e+01 4.497772e+01 1.838606e-01 3.372112e-01 5.703332e-01 8.435826e-01 9.972704e-01 1.090178e+00 1.465726e+00 1.402110e+00 1.437067e+00 1.617586e+00 1.446622e+00 1.243504e+00 1.200052e-01 3.608106e-02 6.809524e-02 1.114380e-01 1.614652e-01 2.024024e-01 2.184592e-01 2.951241e-01 2.776310e-01 2.899004e-01 3.277605e-01 2.874493e-01 2.555337e-01 1.557280e-02
<GCONST> 7.678045e+01
<STATE> 9
<MEAN> 39
 -9.019291e+00 -7.083346e+00 -4.886234e+00 3.831095e+00 -2.093805e+00 -3.614911e+00 -1.187541e+00 -2.568806e+00 -8.430390e+00 -3.044779e+00 -5.763536e+00 -6.275722e+00 4.768115e+01 -3.779781e-02 3.504410e-02 -2.302414e-02 5.124817e-02 -3.741078e-02 4.494784e-02 -2.163489e-02 3.779584e-02 -9.023306e-03 1.991968e-02 -5.163101e-03 1.017067e-03 -1.758162e-01 1.251171e-03 3.230584e-04 3.470146e-04 -3.032858e-04 8.426310e-04 -4.920606e-04 -4.251889e-04 -6.474060e-04 7.390900e-05 -8.172868e-04 -3.911887e-05 -8.063886e-05 4.057970e-03
<VARIANCE> 39
 4.380363e+00 4.696578e+00 7.132847e+00 1.091215e+01 1.153572e+01 1.289960e+01 1.413369e+01 1.616296e+01 1.330333e+01 1.637214e+01 1.418748e+01 1.135391e+01 3.305135e+01 1.742348e-01 3.260602e-01 5.627475e-01 8.014876e-01 9.933854e-01 1.077133e+00 1.405668e+00 1.374873e+00 1.407567e+00 1.575835e+00 1.395460e+00 1.214038e+00 1.087040e-01 3.469080e-02 6.671782e-02 1.134150e-01 1.621010e-01 2.033851e-01 2.194762e-01 2.880491e-01 2.742461e-01 2.864454e-01 3.226404e-01 2.784432e-01 2.500457e-01 1.504324e-02
<GCONST> 7.466507e+01
<STATE> 10
<MEAN> 39
 -9.319446e+00 -6.740714e+00 -5.076073e+00 4.302792e+00 -2.397733e+00 -3.221771e+00 -1.405431e+00 -2.247294e+00 -8.506104e+00 -2.896638e+00 -5.814241e+00 -6.270000e+00 4.622681e+01 -2.778695e-02 3.621710e-02 -1.816759e-02 4.853787e-02 -2.887301e-02 3.853898e-02 -2.352293e-02 3.175405e-02 -7.960649e-03 1.473508e-02 -4.816375e-03 2.647284e-05 -1.384286e-01 9.213164e-04 -3.994827e-05 5.740476e-04 -3.671247e-04 8.294160e-04 -7.688580e-04 4.097812e-05 -5.650469e-04 7.521879e-05 -4.321946e-04 1.788315e-04 -8.502108e-05 3.815810e-03
<VARIANCE> 39
 3.671311e+00 4.521514e+00 6.584669e+00 9.606523e+00 1.081855e+01 1.209741e+01 1.331790e+01 1.554955e+01 1.295158e+01 1.540773e+01 1.355918e+01 1.111066e+01 2.300605e+01 1.671849e-01 3.183070e-01 5.623035e-01 7.882718e-01 1.003423e+00 1.073762e+00 1.365255e+00 1.357056e+00 1.390563e+00 1.531959e+00 1.367495e+00 1.192723e+00 1.002096e-01 3.363707e-02 6.567597e-02 1.149125e-01 1.640204e-01 2.062030e-01 2.208414e-01 2.820565e-01 2.729915e-01 2.855947e-01 3.143449e-01 2.737189e-01 2.458043e-01 1.470909e-02
<GCONST> 7.310894e+01
<STATE> 11
<MEAN> 39
 -9.542363e+00 -6.402046e+00 -5.214561e+00 4.744449e+00 -2.623483e+00 -2.896820e+00 -1.620683e+00 -1.979734e+00 -8.570264e+00 -2.779397e+00 -5.853423e+00 -6.272401e+00 4.510138e+01 -2.050646e-02 3.445274e-02 -1.270135e-02 4.429984e-02 -2.163878e-02 3.072198e-02 -2.126639e-02 2.665506e-02 -7.391009e-03 1.167009e-02 -2.359715e-03 -5.487045e-04 -1.048365e-01 6.822605e-04 -3.145598e-04 5.222190e-04 -5.463609e-04 6.038613e-04 -8.576227e-04 3.719425e-04 -4.894063e-04 -2.554641e-05 -3.953379e-04 3.146496e-04 -4.401090e-05 3.279493e-03
<VARIANCE> 39
 3.286175e+00 4.334212e+00 6.270583e+00 8.833307e+00 1.042529e+01 1.148002e+01 1.293147e+01 1.507322e+01 1.275408e+01 1.474209e+01 1.325578e+01 1.099107e+01 1.533369e+01 1.628089e-01 3.139997e-01 5.619751e-01 7.839168e-01 1.020951e+00 1.076611e+00 1.347333e+00 1.348804e+00 1.383520e+00 1.486415e+00 1.363827e+00 1.180326e+00 9.323226e-02 3.291600e-02 6.523708e-02 1.154570e-01 1.652715e-01 2.099602e-01 2.224889e-01 2.793580e-01 2.741877e-01 2.870561e-01 3.044724e-01 2.738660e-01 2.433034e-01 1.452757e-02
<GCONST> 7.196346e+01
<TRANSP> 12
 0.000000e+00 1.000000e+00 0.000000e+00 0.000000e+00 0.000000e+00 0.000000e+00 0.000000e+00 0.000000e+00 0.000000e+00 0.000000e+00 0.000000e+00 0.000000e+00
 0.000000e+00 8.955587e-01 1.044414e-01 0.000000e+00 0.000000e+00 0.000000e+00 0.000000e+00 0.000000e+00 0.000000e+00 0.000000e+00 0.000000e+00 0.000000e+00
 0.000000e+00 0.000000e+00 8.955586e-01 1.044414e-01 0.000000e+00 0.000000e+00 0.000000e+00 0.000000e+00 0.000000e+00 0.000000e+00 0.000000e+00 0.000000e+00
 0.000000e+00 0.000000e+00 0.000000e+00 8.955585e-01 1.044415e-01 0.000000e+00 0.000000e+00 0.000000e+00 0.000000e+00 0.000000e+00 0.000000e+00 0.000000e+00
 0.000000e+00 0.000000e+00 0.000000e+00 0.000000e+00 8.955584e-01 1.044415e-01 0.000000e+00 0.000000e+00 0.000000e+00 0.000000e+00 0.000000e+00 0.000000e+00
 0.000000e+00 0.000000e+00 0.000000e+00 0.000000e+00 0.000000e+00 8.955584e-01 1.044417e-01 0.000000e+00 0.000000e+00 0.000000e+00 0.000000e+00 0.000000e+00
 0.000000e+00 0.000000e+00 0.000000e+00 0.000000e+00 0.000000e+00 0.000000e+00 8.955586e-01 1.044414e-01 0.000000e+00 0.000000e+00 0.000000e+00 0.000000e+00
 0.000000e+00 0.000000e+00 0.000000e+00 0.000000e+00 0.000000e+00 0.000000e+00 0.000000e+00 8.955586e-01 1.044414e-01 0.000000e+00 0.000000e+00 0.000000e+00
 0.000000e+00 0.000000e+00 0.000000e+00 0.000000e+00 0.000000e+00 0.000000e+00 0.000000e+00 0.000000e+00 8.955585e-01 1.044414e-01 0.000000e+00 0.000000e+00
 0.000000e+00 0.000000e+00 0.000000e+00 0.000000e+00 0.000000e+00 0.000000e+00 0.000000e+00 0.000000e+00 0.000000e+00 8.955589e-01 1.044411e-01 0.000000e+00
 0.000000e+00 0.000000e+00 0.000000e+00 0.000000e+00 0.000000e+00 0.000000e+00 0.000000e+00 0.000000e+00 0.000000e+00 0.000000e+00 8.955607e-01 1.044393e-01
 0.000000e+00 0.000000e+00 0.000000e+00 0.000000e+00 0.000000e+00 0.000000e+00 0.000000e+00 0.000000e+00 0.000000e+00 0.000000e+00 0.000000e+00 0.000000e+00
<ENDHMM>
~h "SIL"
<BEGINHMM>
<NUMSTATES> 12
<STATE> 2
<MEAN> 39
 -1.028904e+01 -5.662261e+00 -6.493206e+00 3.201723e+00 -2.114438e+00 -2.830765e+00 -1.026393e+00 -1.935045e+00 -7.704661e+00 -2.983917e+00 -4.537694e+00 -5.406926e+00 4.545301e+01 3.548072e-01 -2.989177e-01 1.486910e-01 -6.120560e-02 5.828770e-02 -2.587371e-01 2.780955e-02 -1.014359e-01 -2.366733e-01 -3.484469e-02 -1.346862e-01 -1.482017e-01 5.962987e-01 2.430025e-02 -2.645522e-02 2.545309e-02 -2.376067e-03 6.431682e-03 -2.515776e-02 3.840790e-04 -5.204542e-03 -1.439329e-02 -9.239554e-03 -1.630946e-02 -9.774767e-03 5.420024e-02
<VARIANCE> 39
 2.481441e+01 1.583006e+01 1.558017e+01 9.797644e+00 1.214300e+01 2.156890e+01 1.323522e+01 1.520794e+01 2.123427e+01 1.553419e+01 1.627431e+01 1.464705e+01 7.391869e+01 1.564298e+00 6.285608e-01 9.933209e-01 8.278398e-01 1.233623e+00 1.397949e+00 1.366437e+00 1.575829e+00 1.886535e+00 1.595089e+00 1.551303e+00 1.350929e+00 2.109566e+00 2.360947e-01 1.017525e-01 1.735100e-01 1.611042e-01 2.373626e-01 2.561079e-01 2.696654e-01 3.186564e-01 3.599369e-01 3.136015e-01 3.071212e-01 2.624730e-01 2.745908e-01
<GCONST> 9.426177e+01
<STATE> 3
<MEAN> 39
 -9.067941e+00 -7.118700e+00 -5.276578e+00 2.950511e+00 -1.976571e+00 -4.144749e+00 -8.411024e-01 -2.359441e+00 -8.573313e+00 -3.342990e+00 -5.149501e+00 -6.163919e+00 4.836354e+01 1.206567e-01 -1.494210e-01 1.313133e-01 -2.705272e-02 1.327428e-02 -1.374326e-01 2.093442e-02 -4.300570e-02 -8.597703e-02 -4.061348e-02 -6.310643e-02 -7.813282e-02 3.067303e-01 -2.997389e-02 1.942747e-02 -3.490498e-03 4.519625e-03 -6.036877e-03 1.635947e-02 -1.035447e-03 7.261073e-03 1.916637e-02 5.691603e-06 9.872557e-03 8.888424e-03 -3.862372e-02
<VARIANCE> 39
 6.032360e+00 7.880819e+00 1.030046e+01 1.004851e+01 1.065685e+01 1.471892e+01 1.358184e+01 1.494691e+01 1.537118e+01 1.558698e+01 1.407135e+01 1.274354e+01 3.178053e+01 6.627836e-01 4.942363e-01 7.912138e-01 7.749573e-01 1.075579e+00 1.250473e+00 1.388745e+00 1.531482e+00 1.673076e+00 1.568770e+00 1.507801e+00 1.313811e+00 9.217807e-01 9.574046e-02 8.000223e-02 1.463306e-01 1.593811e-01 2.169316e-01 2.428577e-01 2.848608e-01 3.177426e-01 3.343245e-01 3.266400e-01 3.096860e-01 2.678573e-01 8.549435e-02
<GCONST> 8.454762e+01
<STATE> 4
<MEAN> 39
 -8.886778e+00 -7.494299e+00 -4.751277e+00 2.895548e+00 -1.992716e+00 -4.580379e+00 -7.668913e-01 -2.479951e+00 -8.719536e+00 -3.585176e+00 -5.281414e+00 -6.412160e+00 4.945655e+01 1.610328e-02 -3.549369e-02 5.359397e-02 -5.798975e-03 -1.660510e-03 -4.393987e-02 7.550579e-03 -1.230370e-02 -1.229651e-02 -2.751827e-02 -1.155503e-02 -2.472446e-02 1.177752e-01 -9.872719e-03 1.166005e-02 -8.561406e-03 2.223552e-03 -1.242275e-03 9.571429e-03 -1.550642e-03 3.035370e-03 7.138291e-03 1.403554e-03 5.253014e-03 5.502403e-03 -1.879396e-02
<VARIANCE> 39
 3.934375e+00 6.508450e+00 7.840101e+00 1.092515e+01 1.079787e+01 1.386197e+01 1.412936e+01 1.523920e+01 1.459874e+01 1.579933e+01 1.371825e+01 1.226102e+01 2.924945e+01 2.625962e-01 3.875681e-01 6.294027e-01 7.549238e-01 1.010851e+00 1.152404e+00 1.406171e+00 1.494207e+00 1.541990e+00 1.554029e+00 1.470650e+00 1.292797e+00 2.713221e-01 5.030340e-02 7.184859e-02 1.226629e-01 1.564076e-01 2.075117e-01 2.355391e-01 2.886983e-01 3.105864e-01 3.192368e-01 3.233306e-01 3.045058e-01 2.668286e-01 2.980541e-02
<GCONST> 7.847011e+01
<STATE> 5
<MEAN> 39
 -8.922815e+00 -7.424210e+00 -4.613388e+00 2.921161e+00 -2.044367e+00 -4.717307e+00 -8.026925e-01 -2.486499e+00 -8.703747e+00 -3.800012e+00 -5.239625e+00 -6.444191e+00 5.001707e+01 -4.579237e-03 1.025352e-02 1.319302e-02 2.550366e-03 -5.189857e-03 -1.433067e-02 -4.753784e-03 2.308390e-04 3.595766e-03 -2.572692e-02 6.923565e-03 -1.755370e-03 6.688476e-02 -2.088800e-03 4.725234e-03 -4.126270e-03 8.523935e-04 -3.637366e-04 2.864635e-03 -1.349855e-03 1.382663e-03 1.669652e-03 7.176725e-05 2.025935e-03 2.463332e-03 -4.714921e-03
<VARIANCE> 39
 5.439540e+00 7.898965e+00 8.589282e+00 1.242210e+01 1.212674e+01 1.541663e+01 1.542666e+01 1.599520e+01 1.505016e+01 1.705620e+01 1.449321e+01 1.257384e+01 3.848735e+01 2.587187e-01 3.913569e-01 6.013162e-01 7.756814e-01 1.044825e+00 1.156795e+00 1.444638e+00 1.509658e+00 1.533851e+00 1.552786e+00 1.477681e+00 1.297161e+00 1.778440e-01 4.591315e-02 7.301778e-02 1.168895e-01 1.580582e-01 2.115418e-01 2.374951e-01 2.938707e-01 3.123989e-01 3.174027e-01 3.206756e-01 3.042785e-01 2.678238e-01 2.258041e-02
<GCONST> 7.930726e+01
<STATE> 6
<MEAN> 39
 -9.013461e+00 -7.152571e+00 -4.590256e+00 2.956156e+00 -2.163166e+00 -4.797016e+00 -9.386519e-01 -2.426172e+00 -8.640552e+00 -4.083953e+00 -5.088538e+00 -6.359899e+00 5.055658e+01 -1.104510e-02 3.179925e-02 1.745695e-03 2.655339e-03 -1.298615e-02 -9.583433e-03 -1.578508e-02 8.290217e-03 1.043618e-02 -3.455732e-02 2.015286e-02 1.136481e-02 6.946506e-02 -8.462464e-04 2.394247e-03 -1.035811e-03 -1.009076e-04 -7.618541e-04 3.182097e-04 -1.110937e-03 8.558846e-04 1.120202e-03 -1.105795e-03 1.626350e-03 1.422951e-03 1.216744e-03
<VARIANCE> 39
 8.410410e+00 1.052564e+01 1.162519e+01 1.500194e+01 1.498629e+01 1.851656e+01 1.800941e+01 1.741249e+01 1.605655e+01 1.985043e+01 1.628665e+01 1.348451e+01 5.386510e+01 3.489914e-01 4.564044e-01 6.503071e-01 8.266292e-01 1.132479e+00 1.224007e+00 1.512682e+00 1.566321e+00 1.570670e+00 1.571520e+00 1.518033e+00 1.323568e+00 2.238738e-01 5.546097e-02 8.002540e-02 1.201645e-01 1.628976e-01 2.224587e-01 2.469694e-01 3.016807e-01 3.212256e-01 3.230908e-01 3.203420e-01 3.090133e-01 2.715796e-01 2.821462e-02
<GCONST> 8.377390e+01
<STATE> 7
<MEAN> 39
 -9.114310e+00 -6.767768e+00 -4.563289e+00 2.942815e+00 -2.383255e+00 -4.893992e+00 -1.173392e+00 -2.314591e+00 -8.522278e+00 -4.486483e+00 -4.819137e+00 -6.188356e+00 5.128757e+01 -1.303421e-02 4.471646e-02 3.390156e-03 -3.679248e-03 -2.277994e-02 -1.245676e-02 -2.518059e-02 1.352889e-02 2.027996e-02 -4.858071e-02 3.436765e-02 2.050034e-02 9.804949e-02 -3.130571e-04 1.549936e-03 5.977723e-04 -8.004546e-04 -6.772421e-04 -4.518439e-04 -5.601873e-04 4.569551e-04 1.614471e-03 -1.637885e-03 1.716417e-03 8.314557e-04 4.475957e-03
<VARIANCE> 39
 1.262679e+01 1.378045e+01 1.685397e+01 1.921365e+01 1.968694e+01 2.316041e+01 2.222161e+01 1.971483e+01 1.768259e+01 2.433706e+01 1.915922e+01 1.498647e+01 7.508006e+01 4.819584e-01 5.537409e-01 7.413203e-01 9.090394e-01 1.263122e+00 1.337216e+00 1.611176e+00 1.661406e+00 1.634541e+00 1.612021e+00 1.585265e+00 1.373801e+00 3.189822e-01 7.154772e-02 9.100366e-02 1.273536e-01 1.709067e-01 2.378872e-01 2.627412e-01 3.120116e-01 3.356533e-01 3.334043e-01 3.231499e-01 3.180558e-01 2.789732e-01 3.931269e-02
<GCONST> 8.948508e+01
<STATE> 8
<MEAN> 39
 -9.185955e+00 -6.331397e+00 -4.477038e+00 2.853005e+00 -2.689596e+00 -5.017526e+00 -1.478079e+00 -2.174608e+00 -8.318508e+00 -4.998302e+00 -4.437736e+00 -5.963349e+00 5.229697e+01 -1.006172e-02 5.100310e-02 1.393639e-02 -1.255721e-02 -2.750820e-02 -1.625224e-02 -2.744360e-02 1.537208e-02 3.394146e-02 -6.050323e-02 4.718884e-02 2.464252e-02 1.388946e-01 9.001463e-04 1.748434e-04 1.945557e-03 -1.209102e-03 -2.351276e-04 -7.192503e-04 3.586213e-04 4.085624e-04 1.193334e-03 -1.255078e-03 1.330263e-03 3.106050e-04 4.882886e-03
<VARIANCE> 39
 1.754254e+01 1.701019e+01 2.403268e+01 2.508822e+01 2.597142e+01 2.897885e+01 2.787585e+01 2.291219e+01 1.983985e+01 3.000944e+01 2.282361e+01 1.692530e+01 9.951680e+01 6.370205e-01 6.672437e-01 8.535779e-01 1.015751e+00 1.419204e+00 1.472276e+00 1.727977e+00 1.796333e+00 1.711186e+00 1.666690e+00 1.672902e+00 1.443768e+00 4.464928e-01 9.172817e-02 1.052461e-01 1.365114e-01 1.815891e-01 2.552693e-01 2.808933e-01 3.232293e-01 3.560041e-01 3.450779e-01 3.282554e-01 3.306173e-01 2.897781e-01 5.574656e-02
<GCONST> 9.525597e+01
<STATE> 9
<MEAN> 39
 -9.195377e+00 -5.908359e+00 -4.280354e+00 2.699688e+00 -2.991612e+00 -5.154185e+00 -1.755250e+00 -2.038854e+00 -8.010375e+00 -5.546999e+00 -3.984884e+00 -5.734829e+00 5.358238e+01 2.578806e-03 4.366994e-02 3.305514e-02 -2.116039e-02 -2.398073e-02 -2.065099e-02 -1.906048e-02 1.687528e-02 4.060100e-02 -6.283365e-02 5.328099e-02 2.436369e-02 1.684480e-01 3.034783e-03 -3.121735e-03 2.193111e-03 -1.465207e-03 -1.149154e-03 -1.058495e-03 -2.770347e-04 7.716142e-04 -1.893495e-03 -6.526470e-05 -2.958562e-04 1.195857e-04 -9.103959e-04
<VARIANCE> 39
 2.227326e+01 1.957925e+01 3.212350e+01 3.177619e+01 3.299667e+01 3.504518e+01 3.419871e+01 2.669489e+01 2.214049e+01 3.577224e+01 2.657013e+01 1.896296e+01 1.208851e+02 7.810391e-01 7.838439e-01 9.632598e-01 1.130365e+00 1.570831e+00 1.594554e+00 1.840590e+00 1.963382e+00 1.775458e+00 1.724166e+00 1.768354e+00 1.518103e+00 5.882220e-01 1.120277e-01 1.221546e-01 1.457446e-01 1.939406e-01 2.712070e-01 2.956935e-01 3.329599e-01 3.820071e-01 3.528563e-01 3.343349e-01 3.447563e-01 3.013588e-01 7.596390e-02
<GCONST> 1.001957e+02
<STATE> 10
<MEAN> 39
 -9.081194e+00 -5.617526e+00 -3.927203e+00 2.509660e+00 -3.186783e+00 -5.309291e+00 -1.895416e+00 -1.906068e+00 -7.682448e+00 -6.020555e+00 -3.540342e+00 -5.535294e+00 5.496104e+01 2.906589e-02 9.395244e-03 4.844915e-02 -2.804638e-02 -2.766979e-02 -2.754093e-02 -1.737583e-02 2.063507e-02 1.815521e-02 -5.197532e-02 4.249957e-02 2.262302e-02 1.363448e-01 2.749164e-03 -4.522535e-03 -6.613390e-04 8.792856e-04 -3.884272e-03 -1.004459e-04 -2.574246e-03 -9.289836e-04 -4.524343e-03 3.368601e-03 -4.042243e-03 -8.632096e-04 -1.139269e-02
<VARIANCE> 39
 2.566421e+01 2.088623e+01 3.929936e+01 3.760322e+01 3.948286e+01 4.001348e+01 3.993307e+01 3.024992e+01 2.394120e+01 4.043309e+01 2.954063e+01 2.059961e+01 1.323142e+02 8.579013e-01 8.628880e-01 1.036261e+00 1.227559e+00 1.674556e+00 1.670557e+00 1.914204e+00 2.103661e+00 1.793105e+00 1.773590e+00 1.847917e+00 1.571148e+00 6.812395e-01 1.232329e-01 1.345008e-01 1.510689e-01 2.056108e-01 2.814839e-01 3.022505e-01 3.377583e-01 4.024589e-01 3.503456e-01 3.397279e-01 3.556086e-01 3.088217e-01 8.749866e-02
<GCONST> 1.032886e+02
<STATE> 11
<MEAN> 39
 -8.768543e+00 -5.657072e+00 -3.498363e+00 2.317978e+00 -3.359937e+00 -5.507535e+00 -1.980030e+00 -1.763920e+00 -7.589937e+00 -6.299891e+00 -3.266652e+00 -5.372388e+00 5.585964e+01 4.441306e-02 -2.757097e-02 3.308941e-02 -1.240748e-02 -5.649628e-02 -2.595723e-02 -3.196153e-02 7.464459e-03 -2.083812e-02 -5.591717e-03 -2.080855e-03 9.726551e-03 2.028100e-02 -2.210381e-03 2.753788e-03 -2.014640e-03 6.559391e-03 -1.908389e-03 1.778220e-03 5.429032e-03 -4.355461e-03 1.595016e-03 1.594676e-02 -9.106851e-03 -4.006531e-03 -8.533236e-03
<VARIANCE> 39
 2.650227e+01 2.045421e+01 4.368269e+01 4.063457e+01 4.339272e+01 4.260028e+01 4.324608e+01 3.238698e+01 2.503796e+01 4.334170e+01 3.160903e+01 2.124529e+01 1.357302e+02 8.145375e-01 8.206120e-01 1.044394e+00 1.264167e+00 1.695620e+00 1.688080e+00 1.935932e+00 2.136162e+00 1.782244e+00 1.839137e+00 1.926828e+00 1.611579e+00 6.125279e-01 1.133365e-01 1.231482e-01 1.438075e-01 2.026271e-01 2.707565e-01 2.907941e-01 3.244707e-01 3.819721e-01 3.281769e-01 3.307993e-01 3.470495e-01 2.988362e-01 7.187836e-02
<GCONST> 1.032507e+02
<TRANSP> 12
 0.000000e+00 1.000000e+00 0.000000e+00 0.000000e+00 0.000000e+00 0.000000e+00 0.000000e+00 0.000000e+00 0.000000e+00 0.000000e+00 0.000000e+00 0.000000e+00
 0.000000e+00 8.906319e-01 1.093681e-01 0.000000e+00 0.000000e+00 0.000000e+00 0.000000e+00 0.000000e+00 0.000000e+00 0.000000e+00 0.000000e+00 0.000000e+00
 0.000000e+00 0.000000e+00 8.906324e-01 1.093677e-01 0.000000e+00 0.000000e+00 0.000000e+00 0.000000e+00 0.000000e+00 0.000000e+00 0.000000e+00 0.000000e+00
 0.000000e+00 0.000000e+00 0.000000e+00 8.906322e-01 1.093677e-01 0.000000e+00 0.000000e+00 0.000000e+00 0.000000e+00 0.000000e+00 0.000000e+00 0.000000e+00
 0.000000e+00 0.000000e+00 0.000000e+00 0.000000e+00 8.906310e-01 1.093690e-01 0.000000e+00 0.000000e+00 0.000000e+00 0.000000e+00 0.000000e+00 0.000000e+00
 0.000000e+00 0.000000e+00 0.000000e+00 0.000000e+00 0.000000e+00 8.906300e-01 1.093700e-01 0.000000e+00 0.000000e+00 0.000000e+00 0.000000e+00 0.000000e+00
 0.000000e+00 0.000000e+00 0.000000e+00 0.000000e+00 0.000000e+00 0.000000e+00 8.906316e-01 1.093685e-01 0.000000e+00 0.000000e+00 0.000000e+00 0.000000e+00
 0.000000e+00 0.000000e+00 0.000000e+00 0.000000e+00 0.000000e+00 0.000000e+00 0.000000e+00 8.906303e-01 1.093697e-01 0.000000e+00 0.000000e+00 0.000000e+00
 0.000000e+00 0.000000e+00 0.000000e+00 0.000000e+00 0.000000e+00 0.000000e+00 0.000000e+00 0.000000e+00 8.906318e-01 1.093682e-01 0.000000e+00 0.000000e+00
 0.000000e+00 0.000000e+00 0.000000e+00 0.000000e+00 0.000000e+00 0.000000e+00 0.000000e+00 0.000000e+00 0.000000e+00 8.906317e-01 1.093683e-01 0.000000e+00
 0.000000e+00 0.000000e+00 0.000000e+00 0.000000e+00 0.000000e+00 0.000000e+00 0.000000e+00 0.000000e+00 0.000000e+00 0.000000e+00 8.906289e-01 1.093711e-01
 0.000000e+00 0.000000e+00 0.000000e+00 0.000000e+00 0.000000e+00 0.000000e+00 0.000000e+00 0.000000e+00 0.000000e+00 0.000000e+00 0.000000e+00 0.000000e+00
<ENDHMM>
~h "SIX"
<BEGINHMM>
<NUMSTATES> 12
<STATE> 2
<MEAN> 39
 -1.310054e+01 -3.489485e+00 -4.789968e+00 2.204100e+00 -3.065345e+00 -1.322923e+01 -9.207269e-01 2.576391e+00 -6.350043e+00 -9.881750e+00 -8.607347e-01 -5.374795e+00 6.651205e+01 -1.081856e-02 1.299067e-02 -1.568643e-02 1.149618e-02 -4.915783e-03 -2.779981e-02 2.149985e-02 -1.405850e-02 2.868934e-02 8.726397e-03 6.000186e-03 -3.733004e-03 2.924162e-02 3.143084e-03 -3.074692e-03 -8.360897e-04 -1.264247e-03 6.504854e-03 7.508270e-03 4.050846e-03 -1.014028e-02 -1.587845e-03 8.068991e-03 -5.993234e-03 2.653337e-04 -1.200400e-02
<VARIANCE> 39
 7.263895e+01 5.828238e+01 4.567856e+01 1.424961e+01 6.765584e+01 3.633415e+01 4.258937e+01 9.080330e+01 2.479560e+01 5.165413e+01 3.734800e+01 2.881037e+01 5.224898e+01 2.990822e+00 2.364496e+00 1.990060e+00 1.503541e+00 2.440874e+00 1.936221e+00 2.419756e+00 3.557235e+00 2.143163e+00 2.775805e+00 2.184637e+00 1.871614e+00 1.208514e+00 3.126167e-01 2.410251e-01 2.496219e-01 2.966372e-01 3.180669e-01 3.443252e-01 4.215826e-01 4.951444e-01 4.159599e-01 4.330826e-01 3.948288e-01 3.278730e-01 1.213627e-01
<GCONST> 1.159704e+02
<STATE> 3
<MEAN> 39
 -1.303796e+01 -3.519698e+00 -4.944759e+00 2.253324e+00 -2.808640e+00 -1.309739e+01 -5.786554e-01 2.020774e+00 -6.203031e+00 -9.444813e+00 -1.080828e+00 -5.383651e+00 6.618831e+01 1.235001e-02 -8.273158e-03 -2.315912e-02 1.771293e-03 5.043203e-02 3.524192e-02 5.080782e-02 -9.172715e-02 1.284713e-02 7.063862e-02 -4.207431e-02 1.734794e-03 -6.756313e-02 2.854408e-03 -2.525155e-03 -5.786966e-04 -1.170218e-03 6.222009e-03 7.314701e-03 2.958919e-03 -8.451886e-03 -2.077519e-03 6.817400e-03 -5.436557e-03 7.539367e-04 -1.102231e-02
<VARIANCE> 39
 7.138071e+01 5.615841e+01 4.683691e+01 1.470613e+01 6.691571e+01 3.698033e+01 4.233212e+01 8.584321e+01 2.519851e+01 5.072936e+01 3.653059e+01 2.903903e+01 4.986803e+01 2.745216e+00 2.200159e+00 1.923332e+00 1.508430e+00 2.282079e+00 1.935545e+00 2.347383e+00 3.366664e+00 2.123216e+00 2.727125e+00 2.085410e+00 1.872486e+00 1.135385e+00 2.799142e-01 2.265752e-01 2.437078e-01 2.936752e-01 2.970598e-01 3.429114e-01 4.107628e-01 4.742370e-01 4.089820e-01 4.235461e-01 3.769143e-01 3.302197e-01 1.158173e-01
<GCONST> 1.149037e+02
<STATE> 4
<MEAN> 39
 -1.279749e+01 -3.698306e+00 -5.133711e+00 2.235871e+00 -2.167602e+00 -1.249623e+01 -7.379103e-02 9.634190e-01 -6.203986e+00 -8.596436e+00 -1.635338e+00 -5.343740e+00 6.516553e+01 3.668091e-02 -2.795837e-02 -2.219277e-02 -6.113668e-03 8.910337e-02 8.821044e-02 6.392470e-02 -1.418015e-01 -6.867519e-03 1.138372e-01 -7.785363e-02 6.707515e-03 -1.453631e-01 3.383833e-03 -2.652766e-03 9.228145e-04 -8.650469e-04 3.220359e-03 5.651439e-03 5.413670e-04 -4.273192e-03 -2.566501e-03 4.145452e-03 -3.431310e-03 2.937005e-04 -8.237829e-03
<VARIANCE> 39
 6.790242e+01 5.238353e+01 4.456517e+01 1.465844e+01 6.130388e+01 3.839578e+01 3.938373e+01 7.638945e+01 2.481661e+01 4.826826e+01 3.475739e+01 2.806489e+01 4.997736e+01 2.394810e+00 1.964968e+00 1.764543e+00 1.463001e+00 2.036685e+00 1.883257e+00 2.190424e+00 3.047695e+00 2.048742e+00 2.583633e+00 1.962409e+00 1.830702e+00 9.891590e-01 2.378277e-01 2.056714e-01 2.298347e-01 2.823800e-01 2.732348e-01 3.352351e-01 3.877372e-01 4.473393e-01 3.940202e-01 4.070430e-01 3.594159e-01 3.280502e-01 1.038149e-01
<GCONST> 1.125380e+02
<STATE> 5
<MEAN> 39
 -1.234500e+01 -4.034853e+00 -5.253521e+00 2.173216e+00 -1.359424e+00 -1.155113e+01 4.318426e-01 -3.082646e-01 -6.377468e+00 -7.522368e+00 -2.382835e+00 -5.292410e+00 6.364449e+01 6.686553e-02 -5.008470e-02 -6.775491e-03 -1.065280e-02 9.619236e-02 1.237515e-01 5.542939e-02 -1.530809e-01 -2.909882e-02 1.327943e-01 -9.347689e-02 4.482656e-03 -1.970614e-01 3.977994e-03 -2.843127e-03 2.558901e-03 -3.513992e-04 -8.083463e-04 3.394005e-03 -2.019018e-03 5.100450e-04 -2.696549e-03 1.184102e-03 -8.010946e-04 -7.449293e-04 -5.078876e-03
<VARIANCE> 39
 6.253261e+01 4.723168e+01 3.944909e+01 1.406932e+01 5.151279e+01 3.927209e+01 3.430100e+01 6.299950e+01 2.380734e+01 4.374464e+01 3.167976e+01 2.613682e+01 5.064603e+01 1.991195e+00 1.686026e+00 1.547445e+00 1.372878e+00 1.767746e+00 1.793076e+00 2.001923e+00 2.671446e+00 1.936561e+00 2.374538e+00 1.838927e+00 1.754116e+00 8.030718e-01 1.933429e-01 1.805420e-01 2.105781e-01 2.643155e-01 2.512361e-01 3.227828e-01 3.612571e-01 4.157992e-01 3.744383e-01 3.856491e-01 3.449166e-01 3.217770e-01 8.720420e-02
<GCONST> 1.089179e+02
<STATE> 6
<MEAN> 39
 -1.164316e+01 -4.542775e+00 -5.199897e+00 2.096976e+00 -6.437118e-01 -1.041109e+01 7.806625e-01 -1.493931e+00 -6.725265e+00 -6.407105e+00 -3.156192e+00 -5.297576e+00 6.182972e+01 9.828912e-02 -7.101957e-02 1.798211e-02 -1.045474e-02 7.346793e-02 1.409084e-01 3.007293e-02 -1.299214e-01 -4.941782e-02 1.302241e-01 -8.877422e-02 -5.785125e-03 -2.252142e-01 3.449536e-03 -2.152691e-03 3.010903e-03 3.183713e-04 -3.776490e-03 1.234434e-03 -3.517131e-03 4.060315e-03 -2.139110e-03 -1.164259e-03 1.428658e-03 -1.486392e-03 -2.515080e-03
<VARIANCE> 39
 5.527618e+01 4.083150e+01 3.275324e+01 1.301630e+01 3.973979e+01 3.838963e+01 2.849687e+01 4.806321e+01 2.244467e+01 3.758416e+01 2.752600e+01 2.362914e+01 5.029011e+01 1.572877e+00 1.385950e+00 1.307858e+00 1.249969e+00 1.520687e+00 1.678756e+00 1.829620e+00 2.305019e+00 1.817863e+00 2.141289e+00 1.731556e+00 1.653265e+00 6.107404e-01 1.512673e-01 1.536343e-01 1.889928e-01 2.415556e-01 2.331829e-01 3.072481e-01 3.390360e-01 3.823119e-01 3.556710e-01 3.630707e-01 3.346900e-01 3.116844e-01 6.876151e-02
<GCONST> 1.041926e+02
<STATE> 7
<MEAN> 39
 -1.072580e+01 -5.179537e+00 -4.947265e+00 2.046546e+00 -1.998928e-01 -9.211861e+00 8.869343e-01 -2.383356e+00 -7.208300e+00 -5.388213e+00 -3.820289e+00 -5.403824e+00 5.987981e+01 1.191841e-01 -8.172791e-02 3.960451e-02 -4.857987e-03 3.575307e-02 1.423744e-01 -6.185595e-04 -8.729246e-02 -6.238268e-02 1.132606e-01 -7.046155e-02 -1.852751e-02 -2.364341e-01 1.433695e-03 -3.643603e-04 1.894810e-03 9.865746e-04 -4.610574e-03 -4.960994e-04 -3.471611e-03 5.509663e-03 -9.900351e-04 -2.525384e-03 2.576302e-03 -1.345880e-03 -7.694841e-04
<VARIANCE> 39
 4.603417e+01 3.334148e+01 2.576715e+01 1.170086e+01 2.884621e+01 3.532874e+01 2.341542e+01 3.478789e+01 2.093230e+01 3.096040e+01 2.316049e+01 2.093515e+01 4.835754e+01 1.176071e+00 1.092201e+00 1.079620e+00 1.111459e+00 1.315570e+00 1.554219e+00 1.699774e+00 1.993770e+00 1.723749e+00 1.925125e+00 1.648628e+00 1.543052e+00 4.387742e-01 1.147325e-01 1.279496e-01 1.682041e-01 2.167582e-01 2.192188e-01 2.908210e-01 3.248615e-01 3.508346e-01 3.427910e-01 3.434662e-01 3.290030e-01 2.989301e-01 5.141683e-02
<GCONST> 9.868217e+01
<STATE> 8
<MEAN> 39
 -9.719500e+00 -5.834023e+00 -4.568885e+00 2.060809e+00 -7.125211e-02 -8.060751e+00 7.596896e-01 -2.899432e+00 -7.752487e+00 -4.543313e+00 -4.308481e+00 -5.599148e+00 5.790074e+01 1.200183e-01 -7.564172e-02 4.771119e-02 5.265528e-03 -1.329370e-04 1.320795e-01 -2.545322e-02 -4.196064e-02 -6.495722e-02 8.961109e-02 -4.805884e-02 -2.650262e-02 -2.365195e-01 -1.216430e-03 1.779387e-03 -2.306010e-05 1.424021e-03 -3.682405e-03 -1.706452e-03 -2.326628e-03 5.069647e-03 2.965193e-04 -2.954918e-03 2.570300e-03 -4.651587e-04 4.099165e-04
<VARIANCE> 39
 3.525338e+01 2.532674e+01 1.936647e+01 1.039039e+01 2.069873e+01 3.057703e+01 1.974549e+01 2.523960e+01 1.940226e+01 2.506494e+01 1.950957e+01 1.835860e+01 4.495713e+01 8.355427e-01 8.344326e-01 8.892661e-01 9.761406e-01 1.159323e+00 1.434771e+00 1.616724e+00 1.759883e+00 1.671770e+00 1.755897e+00 1.592934e+00 1.442235e+00 3.032568e-01 8.562656e-02 1.062743e-01 1.506435e-01 1.928775e-01 2.090434e-01 2.759050e-01 3.182484e-01 3.252667e-01 3.384695e-01 3.298986e-01 3.274476e-01 2.860304e-01 3.730422e-02
<GCONST> 9.287108e+01
<STATE> 9
<MEAN> 39
 -8.792098e+00 -6.371848e+00 -4.188936e+00 2.165662e+00 -1.926491e-01 -7.032922e+00 4.741740e-01 -3.079000e+00 -8.275677e+00 -3.897803e+00 -4.624499e+00 -5.825865e+00 5.596365e+01 1.008422e-01 -5.401428e-02 4.042968e-02 1.740269e-02 -2.445215e-02 1.141884e-01 -3.908138e-02 -5.705512e-03 -5.813007e-02 6.549473e-02 -2.931120e-02 -2.613801e-02 -2.285420e-01 -3.194906e-03 3.269436e-03 -1.606738e-03 1.476196e-03 -2.118350e-03 -2.408462e-03 -9.516254e-04 3.564582e-03 1.225348e-03 -2.690951e-03 1.847357e-03 5.207394e-04 1.360630e-03
<VARIANCE> 39
 2.434818e+01 1.786498e+01 1.410034e+01 9.309669e+00 1.555544e+01 2.518828e+01 1.741825e+01 1.956479e+01 1.800587e+01 2.059020e+01 1.702554e+01 1.611100e+01 4.038258e+01 5.735131e-01 6.331321e-01 7.492015e-01 8.599139e-01 1.054653e+00 1.334376e+00 1.570643e+00 1.606408e+00 1.660713e+00 1.645073e+00 1.563652e+00 1.366857e+00 2.087174e-01 6.454201e-02 9.010794e-02 1.374162e-01 1.725542e-01 2.028544e-01 2.642571e-01 3.161894e-01 3.079105e-01 3.422092e-01 3.232412e-01 3.290212e-01 2.758653e-01 2.724162e-02
<GCONST> 8.732357e+01
<STATE> 10
<MEAN> 39
 -8.073027e+00 -6.696977e+00 -3.912509e+00 2.364660e+00 -4.596987e-01 -6.171874e+00 1.197332e-01 -3.021368e+00 -8.717182e+00 -3.438483e+00 -4.816332e+00 -6.019974e+00 5.412522e+01 7.080488e-02 -2.465125e-02 2.374067e-02 2.840975e-02 -3.630862e-02 9.262311e-02 -4.271313e-02 1.666567e-02 -4.595289e-02 4.515202e-02 -1.760893e-02 -1.912996e-02 -2.133823e-01 -3.731148e-03 3.607550e-03 -2.185869e-03 1.147759e-03 -8.324319e-04 -2.634796e-03 1.482967e-05 1.831949e-03 1.564994e-03 -2.021360e-03 9.868178e-04 1.053831e-03 2.268509e-03
<VARIANCE> 39
 1.513913e+01 1.203700e+01 1.031023e+01 8.553193e+00 1.271501e+01 2.024454e+01 1.607433e+01 1.669391e+01 1.688832e+01 1.763096e+01 1.562095e+01 1.434071e+01 3.494494e+01 3.927970e-01 4.927327e-01 6.568929e-01 7.729782e-01 9.994621e-01 1.260203e+00 1.546601e+00 1.521749e+00 1.673638e+00 1.585975e+00 1.556047e+00 1.322080e+00 1.501687e-01 5.076493e-02 7.927199e-02 1.282623e-01 1.576117e-01 2.009913e-01 2.561258e-01 3.153975e-01 2.986357e-01 3.505145e-01 3.221017e-01 3.322571e-01 2.699025e-01 2.086589e-02
<GCONST> 8.252665e+01
<STATE> 11
<MEAN> 39
 -7.603795e+00 -6.783832e+00 -3.783266e+00 2.638191e+00 -7.854017e-01 -5.492039e+00 -2.393675e-01 -2.837773e+00 -9.052371e+00 -3.126980e+00 -4.940962e+00 -6.145194e+00 5.243946e+01 4.161534e-02 3.422933e-03 6.016150e-03 3.570157e-02 -3.982319e-02 7.084113e-02 -4.055095e-02 2.586730e-02 -3.316253e-02 3.079428e-02 -1.215516e-02 -1.011841e-02 -1.911952e-01 -3.010806e-03 2.982015e-03 -1.840921e-03 5.907325e-04 -1.308943e-04 -2.458931e-03 4.944900e-04 3.993258e-04 1.359136e-03 -1.244524e-03 3.981840e-04 9.734199e-04 3.116236e-03
<VARIANCE> 39
 8.748446e+00 8.268209e+00 8.020802e+00 8.081694e+00 1.131980e+01 1.643235e+01 1.536881e+01 1.540710e+01 1.607994e+01 1.586825e+01 1.493686e+01 1.310151e+01 2.903399e+01 2.809388e-01 4.043196e-01 6.011960e-01 7.193561e-01 9.835995e-01 1.209249e+00 1.531129e+00 1.485603e+00 1.684874e+00 1.560478e+00 1.562158e+00 1.300094e+00 1.175111e-01 4.267072e-02 7.245969e-02 1.221407e-01 1.488731e-01 2.027740e-01 2.501386e-01 3.136632e-01 2.952424e-01 3.576835e-01 3.236587e-01 3.356899e-01 2.673033e-01 1.719082e-02
<GCONST> 7.874839e+01
<TRANSP> 12
 0.000000e+00 1.000000e+00 0.000000e+00 0.000000e+00 0.000000e+00 0.000000e+00 0.000000e+00 0.000000e+00 0.000000e+00 0.000000e+00 0.000000e+00 0.000000e+00
 0.000000e+00 8.828555e-01 1.171445e-01 0.000000e+00 0.000000e+00 0.000000e+00 0.000000e+00 0.000000e+00 0.000000e+00 0.000000e+00 0.000000e+00 0.000000e+00
 0.000000e+00 0.000000e+00 8.828554e-01 1.171446e-01 0.000000e+00 0.000000e+00 0.000000e+00 0.000000e+00 0.000000e+00 0.000000e+00 0.000000e+00 0.000000e+00
 0.000000e+00 0.000000e+00 0.000000e+00 8.828554e-01 1.171446e-01 0.000000e+00 0.000000e+00 0.000000e+00 0.000000e+00 0.000000e+00 0.000000e+00 0.000000e+00
 0.000000e+00 0.000000e+00 0.000000e+00 0.000000e+00 8.828557e-01 1.171443e-01 0.000000e+00 0.000000e+00 0.000000e+00 0.000000e+00 0.000000e+00 0.000000e+00
 0.000000e+00 0.000000e+00 0.000000e+00 0.000000e+00 0.000000e+00 8.828557e-01 1.171443e-01 0.000000e+00 0.000000e+00 0.000000e+00 0.000000e+00 0.000000e+00
 0.000000e+00 0.000000e+00 0.000000e+00 0.000000e+00 0.000000e+00 0.000000e+00 8.828557e-01 1.171443e-01 0.000000e+00 0.000000e+00 0.000000e+00 0.000000e+00
 0.000000e+00 0.000000e+00 0.000000e+00 0.000000e+00 0.000000e+00 0.000000e+00 0.000000e+00 8.828558e-01 1.171442e-01 0.000000e+00 0.000000e+00 0.000000e+00
 0.000000e+00 0.000000e+00 0.000000e+00 0.000000e+00 0.000000e+00 0.000000e+00 0.000000e+00 0.000000e+00 8.828555e-01 1.171445e-01 0.000000e+00 0.000000e+00
 0.000000e+00 0.000000e+00 0.000000e+00 0.000000e+00 0.000000e+00 0.000000e+00 0.000000e+00 0.000000e+00 0.000000e+00 8.828556e-01 1.171444e-01 0.000000e+00
 0.000000e+00 0.000000e+00 0.000000e+00 0.000000e+00 0.000000e+00 0.000000e+00 0.000000e+00 0.000000e+00 0.000000e+00 0.000000e+00 8.828577e-01 1.171423e-01
 0.000000e+00 0.000000e+00 0.000000e+00 0.000000e+00 0.000000e+00 0.000000e+00 0.000000e+00 0.000000e+00 0.000000e+00 0.000000e+00 0.000000e+00 0.000000e+00
<ENDHMM>
~h "TWO"
<BEGINHMM>
<NUMSTATES> 12
<STATE> 2
<MEAN> 39
 -4.718355e+00 -5.700591e+00 -4.872306e+00 -3.718203e+00 -7.076691e+00 -4.657583e+00 -7.250213e+00 -7.199079e+00 -6.434626e+00 -7.289001e+00 -1.980099e+00 -4.114849e+00 6.420659e+01 2.786087e-02 9.752119e-03 -2.145799e-03 -1.017075e-02 -1.796701e-02 2.033263e-02 5.370763e-02 -1.274239e-02 -3.861798e-02 3.727252e-02 1.813065e-02 4.342954e-02 -1.540058e-02 -4.333614e-03 -4.660179e-03 1.594566e-03 6.927629e-03 7.770730e-03 -3.391569e-03 1.034334e-02 5.051856e-03 -3.050480e-03 4.911378e-03 -4.804873e-03 -2.877723e-03 -1.232529e-02
<VARIANCE> 39
 2.012565e+01 1.745781e+01 1.288012e+01 3.870092e+01 5.276608e+01 4.301698e+01 9.024593e+01 3.147274e+01 3.094665e+01 3.055808e+01 3.391488e+01 3.692057e+01 6.870087e+01 9.254323e-01 5.832345e-01 9.212239e-01 1.203235e+00 2.002923e+00 2.968753e+00 2.908777e+00 1.780854e+00 1.725144e+00 1.859691e+00 1.941415e+00 2.559783e+00 1.203555e+00 1.653610e-01 9.910371e-02 1.595364e-01 2.046577e-01 3.258077e-01 5.155702e-01 4.313060e-01 3.235806e-01 3.082541e-01 3.542428e-01 3.568355e-01 4.965413e-01 1.485379e-01
<GCONST> 1.063738e+02
<STATE> 3
<MEAN> 39
 -4.735469e+00 -5.871713e+00 -4.803967e+00 -3.405286e+00 -6.811183e+00 -4.655649e+00 -6.275668e+00 -7.027666e+00 -6.901412e+00 -6.715181e+00 -2.089006e+00 -3.928936e+00 6.338425e+01 -1.569919e-02 -3.178070e-02 1.106917e-02 5.333395e-02 5.181060e-02 -1.072253e-02 1.267903e-01 3.333452e-02 -5.464045e-02 7.161277e-02 -2.663065e-02 9.051179e-03 -1.188271e-01 -4.783576e-03 -4.296671e-03 1.235057e-03 6.641676e-03 7.225084e-03 -3.196435e-03 6.561112e-03 4.792426e-03 -1.183102e-03 2.996224e-03 -4.746202e-03 -3.981644e-03 -1.054102e-02
<VARIANCE> 39
 1.859541e+01 1.767014e+01 1.159035e+01 3.831702e+01 5.047686e+01 3.795637e+01 8.215178e+01 2.995595e+01 2.932570e+01 2.937352e+01 3.263998e+01 3.672866e+01 6.702934e+01 7.182381e-01 5.465204e-01 8.374403e-01 1.166156e+00 1.832379e+00 2.552064e+00 2.469742e+00 1.694972e+00 1.709004e+00 1.764676e+00 1.880161e+00 2.370833e+00 8.857711e-01 1.228795e-01 9.255369e-02 1.489096e-01 2.006098e-01 2.986489e-01 4.434449e-01 3.764222e-01 3.120177e-01 3.112435e-01 3.346550e-01 3.482734e-01 4.526507e-01 1.064958e-01
<GCONST> 1.029801e+02
<STATE> 4
<MEAN> 39
 -5.119563e+00 -6.351683e+00 -4.649286e+00 -2.596875e+00 -6.025404e+00 -4.872383e+00 -4.908490e+00 -6.506364e+00 -7.405245e+00 -5.957440e+00 -2.543551e+00 -4.072163e+00 6.180676e+01 -5.387582e-02 -6.138315e-02 1.804357e-02 1.024228e-01 1.015324e-01 -3.047400e-02 1.556445e-01 6.731095e-02 -5.412771e-02 8.459467e-02 -6.070752e-02 -2.694207e-02 -1.929306e-01 -3.689172e-03 -2.527726e-03 4.545613e-04 4.519015e-03 4.222897e-03 -1.482016e-03 1.427081e-03 3.016121e-03 5.531079e-04 5.876121e-04 -3.035458e-03 -3.703317e-03 -6.840450e-03
<VARIANCE> 39
 1.686402e+01 1.707983e+01 9.860035e+00 3.681247e+01 4.625879e+01 3.138815e+01 6.941277e+01 2.768513e+01 2.638732e+01 2.685601e+01 3.009189e+01 3.504581e+01 6.620111e+01 5.293375e-01 5.012239e-01 7.395124e-01 1.104158e+00 1.619218e+00 2.101038e+00 2.051130e+00 1.612137e+00 1.688444e+00 1.665932e+00 1.795089e+00 2.155435e+00 6.001101e-01 8.727032e-02 8.604421e-02 1.363357e-01 1.957009e-01 2.688119e-01 3.697044e-01 3.278698e-01 3.044452e-01 3.154742e-01 3.169026e-01 3.397259e-01 4.087499e-01 7.144646e-02
<GCONST> 9.851609e+01
<STATE> 5
<MEAN> 39
 -5.761140e+00 -6.985548e+00 -4.476353e+00 -1.487388e+00 -4.979608e+00 -5.160804e+00 -3.537010e+00 -5.790912e+00 -7.835244e+00 -5.198185e+00 -3.191882e+00 -4.485053e+00 5.977952e+01 -7.675574e-02 -7.124316e-02 1.741457e-02 1.273256e-01 1.181932e-01 -3.186861e-02 1.430621e-01 8.223645e-02 -4.311479e-02 7.884110e-02 -7.504872e-02 -5.263858e-02 -2.320265e-01 -1.774961e-03 -2.201984e-04 -3.242481e-04 1.736891e-03 3.860536e-04 5.929537e-04 -2.646582e-03 8.987127e-04 1.429453e-03 -1.146732e-03 -7.146820e-04 -2.202549e-03 -3.072879e-03
<VARIANCE> 39
 1.477072e+01 1.521568e+01 8.154068e+00 3.351924e+01 3.963995e+01 2.475449e+01 5.372980e+01 2.474704e+01 2.292411e+01 2.334423e+01 2.651378e+01 3.195281e+01 6.368341e+01 3.866702e-01 4.584745e-01 6.512457e-01 1.037478e+00 1.415155e+00 1.707442e+00 1.729899e+00 1.552432e+00 1.662863e+00 1.584659e+00 1.709084e+00 1.944659e+00 3.947521e-01 6.272861e-02 8.094905e-02 1.247915e-01 1.912532e-01 2.422486e-01 3.079923e-01 2.932036e-01 3.022244e-01 3.190587e-01 3.045728e-01 3.326393e-01 3.705812e-01 4.756941e-02
<GCONST> 9.344393e+01
<STATE> 6
<MEAN> 39
 -6.508756e+00 -7.598142e+00 -4.345121e+00 -2.930210e-01 -3.962147e+00 -5.372533e+00 -2.434206e+00 -5.038897e+00 -8.148450e+00 -4.554757e+00 -3.859636e+00 -5.033402e+00 5.757891e+01 -8.241947e-02 -6.219226e-02 1.116815e-02 1.291818e-01 1.039756e-01 -1.816176e-02 1.062101e-01 8.122573e-02 -2.970615e-02 6.368469e-02 -7.060347e-02 -6.170779e-02 -2.428644e-01 2.803933e-05 1.642549e-03 -7.942049e-04 -5.416273e-04 -2.618212e-03 1.961375e-03 -4.507639e-03 -5.583460e-04 1.425672e-03 -1.734756e-03 1.125921e-03 -3.030259e-04 -3.483777e-04
<VARIANCE> 39
 1.218219e+01 1.229086e+01 6.819940e+00 2.854063e+01 3.137132e+01 1.919611e+01 3.858508e+01 2.158148e+01 1.975587e+01 1.980038e+01 2.249057e+01 2.765862e+01 5.858035e+01 2.938048e-01 4.228744e-01 5.840116e-01 9.796937e-01 1.247239e+00 1.415216e+00 1.518952e+00 1.521287e+00 1.632598e+00 1.529543e+00 1.636550e+00 1.756386e+00 2.705745e-01 4.846557e-02 7.744261e-02 1.156864e-01 1.878745e-01 2.213679e-01 2.639951e-01 2.732428e-01 3.046043e-01 3.207899e-01 2.986343e-01 3.271838e-01 3.397981e-01 3.388695e-02
<GCONST> 8.831408e+01
<STATE> 7
<MEAN> 39
 -7.232313e+00 -8.060049e+00 -4.287201e+00 8.246228e-01 -3.181811e+00 -5.422418e+00 -1.704535e+00 -4.347761e+00 -8.357453e+00 -4.057808e+00 -4.419574e+00 -5.573540e+00 5.539260e+01 -7.537550e-02 -4.166429e-02 2.800597e-03 1.162068e-01 7.141220e-02 1.911031e-03 6.420390e-02 7.234163e-02 -1.929164e-02 4.842843e-02 -5.483301e-02 -5.573857e-02 -2.361552e-01 1.152606e-03 2.493337e-03 -8.838221e-04 -1.767084e-03 -3.961541e-03 2.276993e-03 -4.398598e-03 -1.092510e-03 9.502371e-04 -1.450752e-03 1.987639e-03 1.124047e-03 1.213814e-03
<VARIANCE> 39
 9.379237e+00 9.136450e+00 5.990870e+00 2.293054e+01 2.336381e+01 1.531494e+01 2.684905e+01 1.883893e+01 1.734247e+01 1.703325e+01 1.884285e+01 2.284158e+01 5.161703e+01 2.398223e-01 3.933063e-01 5.385926e-01 9.352952e-01 1.120678e+00 1.229478e+00 1.396842e+00 1.512191e+00 1.600358e+00 1.498839e+00 1.581394e+00 1.600023e+00 2.037232e-01 4.144979e-02 7.489645e-02 1.091746e-01 1.856337e-01 2.062583e-01 2.378097e-01 2.646377e-01 3.094987e-01 3.204437e-01 2.978678e-01 3.227840e-01 3.162624e-01 2.708149e-02
<GCONST> 8.365676e+01
<STATE> 8
<MEAN> 39
 -7.855978e+00 -8.319788e+00 -4.304019e+00 1.786469e+00 -2.722912e+00 -5.300344e+00 -1.317468e+00 -3.746606e+00 -8.498722e+00 -3.677819e+00 -4.817370e+00 -6.008204e+00 5.332435e+01 -6.234696e-02 -1.894755e-02 -4.697291e-03 9.767007e-02 3.519182e-02 2.034880e-02 2.979052e-02 6.236859e-02 -1.347137e-02 3.779587e-02 -3.616631e-02 -4.158885e-02 -2.201125e-01 1.526583e-03 2.347670e-03 -7.078319e-04 -2.051512e-03 -3.741247e-03 1.831649e-03 -3.227898e-03 -1.051033e-03 4.217058e-04 -9.140653e-04 1.974223e-03 1.682342e-03 2.049999e-03
<VARIANCE> 39
 6.843249e+00 6.546272e+00 5.597181e+00 1.788134e+01 1.726667e+01 1.305550e+01 1.935047e+01 1.690705e+01 1.575199e+01 1.526067e+01 1.614780e+01 1.843494e+01 4.383222e+01 2.103166e-01 3.672342e-01 5.107763e-01 9.029253e-01 1.032617e+00 1.133612e+00 1.334207e+00 1.514206e+00 1.568375e+00 1.484442e+00 1.542232e+00 1.480159e+00 1.681686e-01 3.854144e-02 7.249586e-02 1.048407e-01 1.841783e-01 1.963420e-01 2.265182e-01 2.626365e-01 3.145149e-01 3.182042e-01 2.999162e-01 3.189101e-01 2.994764e-01 2.381401e-02
<GCONST> 7.979674e+01
<STATE> 9
<MEAN> 39
 -8.357298e+00 -8.396399e+00 -4.377701e+00 2.580367e+00 -2.560101e+00 -5.044996e+00 -1.175884e+00 -3.226358e+00 -8.607339e+00 -3.369911e+00 -5.059255e+00 -6.305576e+00 5.142920e+01 -4.880236e-02 -9.365305e-04 -9.861805e-03 7.975005e-02 6.084110e-03 3.306437e-02 7.436695e-03 5.378889e-02 -1.148471e-02 3.143817e-02 -2.035555e-02 -2.647474e-02 -1.986991e-01 1.393735e-03 1.614347e-03 -4.442967e-04 -1.828698e-03 -2.596445e-03 1.107880e-03 -1.895403e-03 -9.289397e-04 3.056740e-05 -6.019123e-04 1.487932e-03 1.541197e-03 2.590936e-03
<VARIANCE> 39
 4.897151e+00 4.823638e+00 5.471508e+00 1.402928e+01 1.354007e+01 1.194477e+01 1.532453e+01 1.573705e+01 1.482344e+01 1.425014e+01 1.451057e+01 1.511638e+01 3.584965e+01 1.938493e-01 3.436716e-01 4.957916e-01 8.786891e-01 9.801606e-01 1.101727e+00 1.306053e+00 1.517219e+00 1.536190e+00 1.476510e+00 1.517261e+00 1.397781e+00 1.461108e-01 3.746248e-02 6.975929e-02 1.022109e-01 1.828405e-01 1.911711e-01 2.256350e-01 2.632048e-01 3.177374e-01 3.141065e-01 3.024578e-01 3.155971e-01 2.887879e-01 2.184222e-02
<GCONST> 7.681806e+01
<STATE> 10
<MEAN> 39
 -8.748024e+00 -8.348058e+00 -4.484929e+00 3.227799e+00 -2.603945e+00 -4.709888e+00 -1.176710e+00 -2.775398e+00 -8.707735e+00 -3.107278e+00 -5.183944e+00 -6.482547e+00 4.974357e+01 -3.763162e-02 9.658491e-03 -1.258866e-02 6.482459e-02 -1.121777e-02 3.964460e-02 -4.332340e-03 4.575231e-02 -1.188686e-02 2.644602e-02 -9.676542e-03 -1.456290e-02 -1.733381e-01 1.053906e-03 7.801809e-04 -2.073266e-04 -1.476079e-03 -1.246771e-03 4.553321e-04 -9.044023e-04 -9.537694e-04 -1.671715e-04 -6.236016e-04 8.977407e-04 1.115721e-03 2.989281e-03
<VARIANCE> 39
 3.586937e+00 3.841138e+00 5.461910e+00 1.138823e+01 1.166582e+01 1.145765e+01 1.352910e+01 1.503075e+01 1.432449e+01 1.365594e+01 1.370425e+01 1.305464e+01 2.801676e+01 1.833794e-01 3.232137e-01 4.900953e-01 8.581670e-01 9.594991e-01 1.105699e+00 1.296180e+00 1.513492e+00 1.501581e+00 1.466902e+00 1.504494e+00 1.348693e+00 1.286119e-01 3.690431e-02 6.671992e-02 1.008991e-01 1.808551e-01 1.902064e-01 2.299354e-01 2.641223e-01 3.179924e-01 3.079932e-01 3.038251e-01 3.131734e-01 2.828677e-01 2.012753e-02
<GCONST> 7.460879e+01
<STATE> 11
<MEAN> 39
 -9.053533e+00 -8.238305e+00 -4.606027e+00 3.757007e+00 -2.749854e+00 -4.341412e+00 -1.244227e+00 -2.396156e+00 -8.813627e+00 -2.889380e+00 -5.237465e+00 -6.573782e+00 4.829556e+01 -2.961003e-02 1.359689e-02 -1.347027e-02 5.293835e-02 -1.739690e-02 4.141592e-02 -9.396739e-03 3.692090e-02 -1.326379e-02 2.037424e-02 -3.945748e-03 -6.511438e-03 -1.452916e-01 7.035132e-04 1.547594e-04 -3.114794e-05 -1.163838e-03 -2.042443e-04 -1.042956e-05 -3.651293e-04 -1.026350e-03 -1.665252e-04 -7.997140e-04 4.055133e-04 7.174052e-04 3.178891e-03
<VARIANCE> 39
 2.781499e+00 3.330808e+00 5.487887e+00 9.661337e+00 1.084562e+01 1.122238e+01 1.295697e+01 1.451123e+01 1.404146e+01 1.324418e+01 1.340819e+01 1.202476e+01 2.074696e+01 1.753092e-01 3.066376e-01 4.913152e-01 8.384050e-01 9.628806e-01 1.120996e+00 1.297022e+00 1.498648e+00 1.463288e+00 1.450913e+00 1.499230e+00 1.322383e+00 1.127727e-01 3.626088e-02 6.373329e-02 1.006032e-01 1.778095e-01 1.923702e-01 2.345700e-01 2.649397e-01 3.148772e-01 2.999603e-01 3.031618e-01 3.114853e-01 2.793426e-01 1.844950e-02
<GCONST> 7.293094e+01
<TRANSP> 12
 0.000000e+00 1.000000e+00 0.000000e+00 0.000000e+00 0.000000e+00 0.000000e+00 0.000000e+00 0.000000e+00 0.000000e+00 0.000000e+00 0.000000e+00 0.000000e+00
 0.000000e+00 8.932548e-01 1.067452e-01 0.000000e+00 0.000000e+00 0.000000e+00 0.000000e+00 0.000000e+00 0.000000e+00 0.000000e+00 0.000000e+00 0.000000e+00
 0.000000e+00 0.000000e+00 8.932548e-01 1.067452e-01 0.000000e+00 0.000000e+00 0.000000e+00 0.000000e+00 0.000000e+00 0.000000e+00 0.000000e+00 0.000000e+00
 0.000000e+00 0.000000e+00 0.000000e+00 8.932545e-01 1.067455e-01 0.000000e+00 0.000000e+00 0.000000e+00 0.000000e+00 0.000000e+00 0.000000e+00 0.000000e+00
 0.000000e+00 0.000000e+00 0.000000e+00 0.000000e+00 8.932546e-01 1.067454e-01 0.000000e+00 0.000000e+00 0.000000e+00 0.000000e+00 0.000000e+00 0.000000e+00
 0.000000e+00 0.000000e+00 0.000000e+00 0.000000e+00 0.000000e+00 8.932549e-01 1.067451e-01 0.000000e+00 0.000000e+00 0.000000e+00 0.000000e+00 0.000000e+00
 0.000000e+00 0.000000e+00 0.000000e+00 0.000000e+00 0.000000e+00 0.000000e+00 8.932545e-01 1.067455e-01 0.000000e+00 0.000000e+00 0.000000e+00 0.000000e+00
 0.000000e+00 0.000000e+00 0.000000e+00 0.000000e+00 0.000000e+00 0.000000e+00 0.000000e+00 8.932546e-01 1.067453e-01 0.000000e+00 0.000000e+00 0.000000e+00
 0.000000e+00 0.000000e+00 0.000000e+00 0.000000e+00 0.000000e+00 0.000000e+00 0.000000e+00 0.000000e+00 8.932545e-01 1.067456e-01 0.000000e+00 0.000000e+00
 0.000000e+00 0.000000e+00 0.000000e+00 0.000000e+00 0.000000e+00 0.000000e+00 0.000000e+00 0.000000e+00 0.000000e+00 8.932546e-01 1.067454e-01 0.000000e+00
 0.000000e+00 0.000000e+00 0.000000e+00 0.000000e+00 0.000000e+00 0.000000e+00 0.000000e+00 0.000000e+00 0.000000e+00 0.000000e+00 8.932568e-01 1.067432e-01
 0.000000e+00 0.000000e+00 0.000000e+00 0.000000e+00 0.000000e+00 0.000000e+00 0.000000e+00 0.000000e+00 0.000000e+00 0.000000e+00 0.000000e+00 0.000000e+00
<ENDHMM>
~h "NINE"
<BEGINHMM>
<NUMSTATES> 12
<STATE> 2
<MEAN> 39
 -4.160673e+00 -8.995228e+00 -4.398365e+00 2.827792e+00 -5.656403e+00 -7.596234e+00 -3.167149e+00 -1.637509e+00 -8.246209e+00 -9.686869e+00 -1.301985e+00 -8.020046e+00 6.810764e+01 -3.336608e-02 3.449240e-02 8.153829e-02 8.463541e-02 -2.047901e-02 -7.775544e-02 6.148841e-02 4.412309e-02 -1.608117e-03 8.506799e-03 -4.653367e-02 4.988958e-02 -5.317803e-02 -5.821240e-03 2.694669e-03 2.182850e-03 -1.565045e-03 7.741637e-03 2.255186e-03 3.924065e-03 -5.687759e-03 -2.218459e-03 7.915178e-03 -4.334375e-03 1.421565e-03 -1.496227e-02
<VARIANCE> 39
 9.942450e+00 1.946984e+01 4.779385e+01 4.765128e+01 4.162180e+01 7.415547e+01 2.801251e+01 4.366806e+01 3.329968e+01 2.955642e+01 3.441203e+01 2.730534e+01 4.494438e+01 2.930123e-01 7.346630e-01 1.415033e+00 2.052938e+00 1.828515e+00 2.707667e+00 1.651286e+00 2.879712e+00 2.271373e+00 1.522605e+00 2.207282e+00 1.807344e+00 4.964313e-01 4.702505e-02 1.042011e-01 1.590377e-01 2.701669e-01 2.519289e-01 3.097664e-01 2.934394e-01 5.279509e-01 3.832900e-01 2.946805e-01 3.604326e-01 3.058543e-01 3.626039e-02
<GCONST> 1.013898e+02
<STATE> 3
<MEAN> 39
 -4.632651e+00 -8.631557e+00 -3.702580e+00 3.399919e+00 -5.496682e+00 -8.075549e+00 -2.564854e+00 -1.535524e+00 -8.342308e+00 -9.320307e+00 -1.811722e+00 -7.593877e+00 6.713981e+01 -7.145271e-02 4.793840e-02 8.006030e-02 5.521502e-02 4.461600e-02 -4.290716e-02 8.003917e-02 -7.509907e-03 -1.515152e-02 6.755382e-02 -7.265545e-02 5.047546e-02 -1.557943e-01 -3.917408e-03 8.063829e-04 -1.630353e-03 -4.623333e-03 7.404080e-03 5.147571e-03 1.402459e-03 -6.373699e-03 -1.096628e-03 6.590384e-03 -2.521800e-03 -6.139681e-04 -1.100117e-02
<VARIANCE> 39
 9.776451e+00 1.843849e+01 4.328253e+01 4.313451e+01 4.234063e+01 6.634505e+01 2.572269e+01 4.155458e+01 3.024240e+01 3.000715e+01 3.294471e+01 2.627962e+01 4.364450e+01 2.467793e-01 6.673374e-01 1.237913e+00 1.801642e+00 1.760505e+00 2.416966e+00 1.552673e+00 2.677696e+00 2.107727e+00 1.531949e+00 2.094720e+00 1.776402e+00 3.763606e-01 4.071619e-02 9.584901e-02 1.428978e-01 2.391843e-01 2.361272e-01 2.822408e-01 2.830471e-01 4.876266e-01 3.588789e-01 2.977057e-01 3.398210e-01 2.997437e-01 2.848556e-02
<GCONST> 9.835957e+01
<STATE> 4
<MEAN> 39
 -5.324652e+00 -8.243065e+00 -3.166243e+00 3.641377e+00 -4.871246e+00 -8.200239e+00 -1.908398e+00 -1.829935e+00 -8.486163e+00 -8.562133e+00 -2.464442e+00 -7.233999e+00 6.553792e+01 -9.252592e-02 4.426829e-02 5.067988e-02 9.520140e-03 9.341967e-02 3.981324e-03 8.060827e-02 -5.367136e-02 -1.597676e-02 1.088932e-01 -8.501021e-02 3.842737e-02 -2.211503e-01 -1.760067e-03 -1.154224e-03 -4.409773e-03 -5.687173e-03 4.454178e-03 5.605180e-03 -6.370451e-04 -4.873157e-03 4.664015e-04 3.898615e-03 -8.147763e-04 -1.743946e-03 -6.241868e-03
<VARIANCE> 39
 9.618009e+00 1.636155e+01 3.571244e+01 3.681099e+01 4.073419e+01 5.481884e+01 2.306752e+01 3.831398e+01 2.697726e+01 3.035766e+01 3.063308e+01 2.375705e+01 4.364384e+01 2.130215e-01 5.975662e-01 1.053328e+00 1.532143e+00 1.632339e+00 2.088826e+00 1.481902e+00 2.435544e+00 1.966170e+00 1.533279e+00 1.948995e+00 1.697238e+00 2.727673e-01 3.652819e-02 8.865314e-02 1.293358e-01 2.102356e-01 2.218387e-01 2.595551e-01 2.772563e-01 4.448569e-01 3.424830e-01 3.002464e-01 3.201729e-01 2.898160e-01 2.295157e-02
<GCONST> 9.470319e+01
<STATE> 5
<MEAN> 39
 -6.106710e+00 -7.948769e+00 -2.944166e+00 3.510856e+00 -3.987044e+00 -7.971008e+00 -1.309227e+00 -2.407746e+00 -8.580119e+00 -7.583500e+00 -3.160655e+00 -6.995222e+00 6.359016e+01 -9.773222e-02 2.894644e-02 9.296032e-03 -3.325690e-02 1.116099e-01 4.320359e-02 6.916638e-02 -8.038113e-02 -6.650001e-03 1.262111e-01 -8.520423e-02 2.331229e-02 -2.518331e-01 5.737622e-05 -2.041239e-03 -4.889656e-03 -4.376451e-03 4.787265e-04 3.897716e-03 -1.811793e-03 -2.004665e-03 1.317258e-03 8.150540e-04 5.586753e-04 -1.673886e-03 -2.390929e-03
<VARIANCE> 39
 8.991314e+00 1.371751e+01 2.753353e+01 3.037185e+01 3.615349e+01 4.270156e+01 2.027226e+01 3.408312e+01 2.388876e+01 2.943862e+01 2.744581e+01 2.067066e+01 4.239673e+01 1.929017e-01 5.305861e-01 8.846059e-01 1.283582e+00 1.476833e+00 1.775921e+00 1.426356e+00 2.183477e+00 1.850593e+00 1.519001e+00 1.792013e+00 1.588015e+00 1.986192e-01 3.432992e-02 8.251824e-02 1.194343e-01 1.867145e-01 2.110957e-01 2.430228e-01 2.731832e-01 4.032381e-01 3.325808e-01 2.992379e-01 3.039046e-01 2.776983e-01 1.924138e-02
<GCONST> 9.057996e+01
<STATE> 6
<MEAN> 39
 -6.873217e+00 -7.794288e+00 -3.044070e+00 3.108858e+00 -3.098756e+00 -7.510053e+00 -8.279175e-01 -3.087440e+00 -8.579867e+00 -6.571850e+00 -3.816469e+00 -6.859853e+00 6.151934e+01 -9.121107e-02 1.272078e-02 -2.582660e-02 -5.766452e-02 9.963031e-02 6.371906e-02 5.250710e-02 -8.283124e-02 4.451020e-03 1.206576e-01 -7.621828e-02 1.304316e-02 -2.590077e-01 1.266377e-03 -1.594019e-03 -3.397608e-03 -1.660197e-03 -2.676807e-03 1.472827e-03 -2.146221e-03 9.139148e-04 1.091233e-03 -1.721481e-03 1.468050e-03 -8.725022e-04 -1.023680e-04
<VARIANCE> 39
 7.855619e+00 1.109897e+01 2.051943e+01 2.445254e+01 2.929683e+01 3.199122e+01 1.774476e+01 2.908866e+01 2.123085e+01 2.683700e+01 2.380932e+01 1.784359e+01 3.952140e+01 1.833107e-01 4.699795e-01 7.465568e-01 1.080188e+00 1.326702e+00 1.516008e+00 1.377252e+00 1.948948e+00 1.753328e+00 1.485794e+00 1.648661e+00 1.474104e+00 1.515168e-01 3.364145e-02 7.733282e-02 1.130320e-01 1.694692e-01 2.048026e-01 2.321027e-01 2.690907e-01 3.655756e-01 3.254352e-01 2.933961e-01 2.925493e-01 2.657607e-01 1.679095e-02
<GCONST> 8.624226e+01
<STATE> 7
<MEAN> 39
 -7.554988e+00 -7.743768e+00 -3.358994e+00 2.612642e+00 -2.400831e+00 -6.969978e+00 -4.785156e-01 -3.694057e+00 -8.508595e+00 -5.679377e+00 -4.374094e+00 -6.771553e+00 5.945379e+01 -7.792611e-02 4.352942e-03 -4.415892e-02 -5.889643e-02 6.968711e-02 6.659196e-02 3.614555e-02 -6.577139e-02 9.922167e-03 9.943204e-02 -6.192502e-02 1.009514e-02 -2.543181e-01 1.843551e-03 -3.816126e-04 -1.185401e-03 1.014352e-03 -3.972373e-03 -3.205229e-04 -1.886476e-03 2.824463e-03 2.144403e-04 -3.103437e-03 1.869336e-03 -7.006462e-05 9.434330e-04
<VARIANCE> 39
 6.471880e+00 8.890720e+00 1.518032e+01 1.916713e+01 2.212116e+01 2.364019e+01 1.582274e+01 2.408161e+01 1.909416e+01 2.320232e+01 2.040159e+01 1.570043e+01 3.596563e+01 1.802467e-01 4.190556e-01 6.467436e-01 9.306486e-01 1.204444e+00 1.327394e+00 1.335073e+00 1.752522e+00 1.667588e+00 1.436915e+00 1.539230e+00 1.376774e+00 1.233557e-01 3.394672e-02 7.303037e-02 1.093675e-01 1.579423e-01 2.031735e-01 2.261304e-01 2.652165e-01 3.344107e-01 3.180714e-01 2.837418e-01 2.867661e-01 2.561196e-01 1.515541e-02
<GCONST> 8.204426e+01
<STATE> 8
<MEAN> 39
 -8.119199e+00 -7.717190e+00 -3.745344e+00 2.190242e+00 -1.970366e+00 -6.457942e+00 -2.436538e-01 -4.116650e+00 -8.427721e+00 -4.989294e+00 -4.807553e+00 -6.679006e+00 5.744959e+01 -6.237665e-02 6.436026e-03 -4.547119e-02 -4.242099e-02 3.712853e-02 5.976143e-02 2.312517e-02 -3.935013e-02 7.553246e-03 7.235264e-02 -4.624885e-02 1.194118e-02 -2.444565e-01 1.903290e-03 7.834454e-04 5.953133e-04 2.606631e-03 -3.539266e-03 -1.041331e-03 -1.388591e-03 3.373435e-03 -6.158066e-04 -3.261471e-03 1.854577e-03 2.602835e-04 1.503524e-03
<VARIANCE> 39
 5.159350e+00 7.238721e+00 1.134102e+01 1.477089e+01 1.643232e+01 1.788887e+01 1.462939e+01 1.997918e+01 1.746408e+01 1.967527e+01 1.777689e+01 1.431352e+01 3.248259e+01 1.806467e-01 3.796404e-01 5.837290e-01 8.312789e-01 1.120473e+00 1.210177e+00 1.305885e+00 1.605108e+00 1.593766e+00 1.382833e+00 1.473151e+00 1.306059e+00 1.068909e-01 3.480527e-02 6.952304e-02 1.075742e-01 1.511745e-01 2.055691e-01 2.247444e-01 2.630025e-01 3.115476e-01 3.101025e-01 2.730675e-01 2.863761e-01 2.497633e-01 1.403419e-02
<GCONST> 7.839708e+01
<STATE> 9
<MEAN> 39
 -8.562707e+00 -7.639530e+00 -4.090026e+00 1.940826e+00 -1.777355e+00 -6.015201e+00 -9.468460e-02 -4.325624e+00 -8.393942e+00 -4.511637e+00 -5.118854e+00 -6.562906e+00 5.553631e+01 -4.786022e-02 1.592019e-02 -3.600767e-02 -1.864473e-02 1.276541e-02 5.078949e-02 1.382813e-02 -1.338741e-02 1.167934e-04 4.779037e-02 -3.203708e-02 1.410731e-02 -2.303783e-01 1.633069e-03 1.353606e-03 1.441391e-03 2.865039e-03 -2.220655e-03 -1.021594e-03 -9.628282e-04 2.901027e-03 -9.169610e-04 -2.601803e-03 1.577869e-03 8.240178e-05 2.149126e-03
<VARIANCE> 39
 4.134345e+00 6.152827e+00 8.739148e+00 1.160499e+01 1.287992e+01 1.442279e+01 1.407720e+01 1.725785e+01 1.629578e+01 1.711637e+01 1.612639e+01 1.354233e+01 2.899101e+01 1.826718e-01 3.512603e-01 5.492840e-01 7.729653e-01 1.074093e+00 1.151029e+00 1.294119e+00 1.507507e+00 1.538072e+00 1.338104e+00 1.448639e+00 1.261496e+00 9.722851e-02 3.584564e-02 6.669142e-02 1.068902e-01 1.482023e-01 2.104276e-01 2.271168e-01 2.635325e-01 2.973870e-01 3.034258e-01 2.648429e-01 2.905665e-01 2.464430e-01 1.323104e-02
<GCONST> 7.565416e+01
<STATE> 10
<MEAN> 39
